{"learner":{"attributes":{},"feature_names":["step","amount","log_amount","oldbalanceOrg","newbalanceOrig","oldbalanceDest","newbalanceDest","type_CASH_IN","type_CASH_OUT","type_DEBIT","type_PAYMENT","type_TRANSFER","orig_emptied","dest_unchanged","amount_vs_orig_balance","balance_diff_orig","balance_diff_dest","amount_mismatch"],"feature_types":["int","float","float","float","float","float","float","i","i","i","i","i","int","int","float","float","float","float"],"gradient_booster":{"model":{"gbtree_model_param":{"num_parallel_tree":"1","num_trees":"100"},"iteration_indptr":[0,1,2,3,4,5,6,7,8,9,10,11,12,13,14,15,16,17,18,19,20,21,22,23,24,25,26,27,28,29,30,31,32,33,34,35,36,37,38,39,40,41,42,43,44,45,46,47,48,49,50,51,52,53,54,55,56,57,58,59,60,61,62,63,64,65,66,67,68,69,70,71,72,73,74,75,76,77,78,79,80,81,82,83,84,85,86,87,88,89,90,91,92,93,94,95,96,97,98,99,100],"tree_info":[0,0,0,0,0,0,0,0,0,0,0,0,0,0,0,0,0,0,0,0,0,0,0,0,0,0,0,0,0,0,0,0,0,0,0,0,0,0,0,0,0,0,0,0,0,0,0,0,0,0,0,0,0,0,0,0,0,0,0,0,0,0,0,0,0,0,0,0,0,0,0,0,0,0,0,0,0,0,0,0,0,0,0,0,0,0,0,0,0,0,0,0,0,0,0,0,0,0,0,0],"trees":[{"base_weights":[2.6044438E-3,-1.6916527E0,1.2245953E0,-1.9373422E0,-1.1681631E0,1.9999456E-1,-1.7395281E0,-1.9809406E0,1.7453183E0,7.5275517E-1,-1.6338601E0,8.0462426E-1,-1.8590783E0,-1.9880219E0,-7.97048E-1,-1.8857144E-1,1.992016E-1,-1.9048951E0,1.6706944E0,-1.983752E0,-4.4642857E-1,-1.9817768E-1,1.7467182E0,-1.2510748E0,-1.9469324E0,-1.9994985E0,-1.4163381E0,1.9515152E-1,-1.9790027E-1,5E-1,-1.97506E0,-1.7770898E0,1.8586956E0,-1.8757907E0,-1.999654E-1,-1.9983323E-1,1.9973744E-1,1.8446909E0,-1.7837839E-1,-1.9842961E-1,1.1522936E0,-1.7967124E0,-1.985716E0,-1.9999087E-1,-1.4285715E-1,9.82659E-2,-1.9916259E-1,1.5555556E-1,-1.6521738E-1,-1.9960396E-1,-1.2463768E-1,-1.9739413E-1,1.6000001E-1,1.8962377E-1,-1.3239436E-1,-1.9470724E-1,-1.3899782E-1,-1.4666668E-1,1.8784973E-1,-1.9656652E-1,1.9907086E-1,-1.8472861E-1,1.18584074E-1,-1.9996186E-1,-1.9194156E-1],"categories":[],"categories_nodes":[],"categories_segments":[],"categories_sizes":[],"default_left":[0,0,0,0,0,0,0,0,0,0,0,0,0,0,0,0,0,0,0,0,0,0,0,0,0,0,0,0,0,0,0,0,0,0,0,0,0,0,0,0,0,0,0,0,0,0,0,0,0,0,0,0,0,0,0,0,0,0,0,0,0,0,0,0,0],"id":0,"left_children":[1,3,5,7,9,-1,11,13,15,17,19,21,23,25,27,-1,-1,29,31,33,35,-1,37,39,41,43,45,-1,-1,47,49,51,53,55,-1,-1,-1,57,-1,-1,59,61,63,-1,-1,-1,-1,-1,-1,-1,-1,-1,-1,-1,-1,-1,-1,-1,-1,-1,-1,-1,-1,-1,-1],"loss_changes":[1.653488E5,4.3019375E3,1.0663924E5,3.660086E3,9.565929E3,0E0,2.9277598E3,1.8710938E2,2.4292615E2,5.094547E3,3.5746719E3,1.1387963E3,4.884297E2,1.4396875E2,4.440578E2,0E0,0E0,9.147388E1,1.0091284E3,7.6601562E0,7.4373833E3,0E0,1.1527338E2,2.051726E3,4.320117E1,2.28125E0,6.143827E2,0E0,0E0,3.8917873E1,5.480835E0,5.683972E1,1.7838965E2,2.7404053E1,0E0,0E0,0E0,3.807361E1,0E0,0E0,7.1626697E2,2.5224365E2,2.03125E0,0E0,0E0,0E0,0E0,0E0,0E0,0E0,0E0,0E0,0E0,0E0,0E0,0E0,0E0,0E0,0E0,0E0,0E0,0E0,0E0,0E0,0E0],"parents":[2147483647,0,0,1,1,2,2,3,3,4,4,6,6,7,7,8,8,9,9,10,10,11,11,12,12,13,13,14,14,17,17,18,18,19,19,20,20,22,22,23,23,24,24,25,25,26,26,29,29,30,30,31,31,32,32,33,33,37,37,40,40,41,41,42,42],"right_children":[2,4,6,8,10,-1,12,14,16,18,20,22,24,26,28,-1,-1,30,32,34,36,-1,38,40,42,44,46,-1,-1,48,50,52,54,56,-1,-1,-1,58,-1,-1,60,62,64,-1,-1,-1,-1,-1,-1,-1,-1,-1,-1,-1,-1,-1,-1,-1,-1,-1,-1,-1,-1,-1,-1],"split_conditions":[1E0,1E0,9.999999E-1,7.4436175E5,4.4254125E4,1.9999456E-1,7E0,8.0065E4,1E0,3.89457E3,3.3E1,1E0,1.5337329E0,9.646681E5,4.4745E2,-1.8857144E-1,1.992016E-1,8E0,3.264717E4,4.0047926E4,9.9988294E-1,-1.9817768E-1,7.280274E5,1E0,1.4551915E-11,6.064001E4,1.2807352E6,1.9515152E-1,-1.9790027E-1,4.4745E2,1.02408E3,9.8E1,1.5741722E5,3.5811125E4,-1.999654E-1,-1.9983323E-1,1.9973744E-1,3.2676106E3,-1.7837839E-1,-1.9842961E-1,1E0,8.453382E-12,1E0,-1.9999087E-1,-1.4285715E-1,9.82659E-2,-1.9916259E-1,1.5555556E-1,-1.6521738E-1,-1.9960396E-1,-1.2463768E-1,-1.9739413E-1,1.6000001E-1,1.8962377E-1,-1.3239436E-1,-1.9470724E-1,-1.3899782E-1,-1.4666668E-1,1.8784973E-1,-1.9656652E-1,1.9907086E-1,-1.8472861E-1,1.18584074E-1,-1.9996186E-1,-1.9194156E-1],"split_indices":[12,8,14,15,5,0,0,15,13,14,15,8,14,1,4,0,0,0,1,1,14,0,5,11,17,15,5,0,0,4,14,3,17,1,0,0,0,3,0,0,8,17,11,0,0,0,0,0,0,0,0,0,0,0,0,0,0,0,0,0,0,0,0,0,0],"split_type":[0,0,0,0,0,0,0,0,0,0,0,0,0,0,0,0,0,0,0,0,0,0,0,0,0,0,0,0,0,0,0,0,0,0,0,0,0,0,0,0,0,0,0,0,0,0,0,0,0,0,0,0,0,0,0,0,0,0,0,0,0,0,0,0,0],"sum_hessian":[7.98625E4,3.34645E4,4.6398E4,2.27735E4,1.0691E4,3.6778E4,9.62E3,2.25075E4,2.66E2,2.086E3,8.605E3,4.315E2,9.1885E3,2.2373E4,1.345E2,1.65E1,2.495E2,5.3525E2,1.55075E3,6.646E3,1.959E3,1.0875E2,3.2275E2,1.162E3,8.0265E3,2.193025E4,4.4275E2,4.025E1,9.425E1,1.5E1,5.2025E2,7.975E1,1.471E3,8.685E2,5.7775E3,1.19825E3,7.6075E2,3.145E2,8.25E0,8.905E2,2.715E2,1.65675E3,6.36975E3,2.1912E4,1.825E1,8.55E1,3.5725E2,1.025E1,4.75E0,5.04E2,1.625E1,7.575E1,4E0,1.45425E3,1.675E1,7.5475E2,1.1375E2,2.75E0,3.1175E2,5.725E1,2.1425E2,1.6295E3,2.725E1,5.2415E3,1.12825E3],"tree_param":{"num_deleted":"0","num_feature":"18","num_nodes":"65","size_leaf_vector":"1"}},{"base_weights":[-3.550602E-3,-1.5365924E0,1.1089127E0,-1.7606802E0,-1.0592604E0,1.818685E-1,-1.5822879E0,-1.8009526E0,1.5945145E0,6.70051E-1,-1.4818505E0,7.2329515E-1,-1.6919932E0,-1.8075235E0,-7.6685596E-1,-1.7197017E-1,1.8086419E-1,-1.6175287E0,1.5485574E0,-1.8039564E0,-3.8923764E-1,-1.8037029E-1,1.5734353E0,-2.824441E-1,-1.7602906E0,-1.8184994E-1,-1.2658622E0,1.7890008E-1,-1.8054761E-1,9.954545E-1,-1.7692813E0,-1.8221866E-1,1.6770788E0,-1.7061739E0,-1.8184422E-1,-1.8173304E-1,1.8165722E-1,1.6747531E0,-1.6604477E-1,1.1911786E0,-1.810765E-1,-1.6607994E0,-1.8225588E-1,7.983784E-2,-1.8114184E-1,1.5385827E-1,-1.5503792E-1,-1.8154791E-1,-1.15965284E-1,1.7071854E-1,-1.8931006E-1,-1.8254726E-1,-1.4411527E-1,-1.3958065E-1,1.7083532E-1,1.4820896E-1,-1.7292742E-1,-1.7666356E-1,-9.217339E-2],"categories":[],"categories_nodes":[],"categories_segments":[],"categories_sizes":[],"default_left":[0,0,0,0,0,0,0,0,0,0,0,0,0,0,0,0,0,0,0,0,0,0,0,0,0,0,0,0,0,0,0,0,0,0,0,0,0,0,0,0,0,0,0,0,0,0,0,0,0,0,0,0,0,0,0,0,0,0,0],"id":1,"left_children":[1,3,5,7,9,-1,11,13,15,17,19,21,23,25,27,-1,-1,29,31,33,35,-1,37,39,41,-1,43,-1,-1,45,47,-1,49,51,-1,-1,-1,53,-1,55,-1,57,-1,-1,-1,-1,-1,-1,-1,-1,-1,-1,-1,-1,-1,-1,-1,-1,-1],"loss_changes":[1.3508153E5,3.5607812E3,8.7676055E4,3.065336E3,7.779009E3,0E0,2.4242031E3,1.5079688E2,1.9425531E2,4.204324E3,3.009584E3,9.3909375E2,8.7984766E2,1.2999219E2,3.8322974E2,0E0,0E0,2.3199939E2,6.577195E2,6.251953E0,6.1420527E3,0E0,1.09803406E2,9.566346E2,5.100586E1,0E0,5.0290082E2,0E0,0E0,4.733785E1,1.3359985E1,0E0,1.5975269E2,2.4829102E1,0E0,0E0,0E0,3.5111694E1,0E0,1.8638583E2,0E0,2.6187012E2,0E0,0E0,0E0,0E0,0E0,0E0,0E0,0E0,0E0,0E0,0E0,0E0,0E0,0E0,0E0,0E0,0E0],"parents":[2147483647,0,0,1,1,2,2,3,3,4,4,6,6,7,7,8,8,9,9,10,10,11,11,12,12,13,13,14,14,17,17,18,18,19,19,20,20,22,22,23,23,24,24,26,26,29,29,30,30,32,32,33,33,37,37,39,39,41,41],"right_children":[2,4,6,8,10,-1,12,14,16,18,20,22,24,26,28,-1,-1,30,32,34,36,-1,38,40,42,-1,44,-1,-1,46,48,-1,50,52,-1,-1,-1,54,-1,56,-1,58,-1,-1,-1,-1,-1,-1,-1,-1,-1,-1,-1,-1,-1,-1,-1,-1,-1],"split_conditions":[1E0,1E0,9.999999E-1,7.4436175E5,4.4254125E4,1.818685E-1,7E0,7.1958055E4,2.6087982E6,9.25083E3,3.3E1,1E0,-7.053824E4,9.646681E5,4.4745E2,-1.7197017E-1,1.8086419E-1,8E0,3.654095E4,4.0047926E4,9.9946105E-1,-1.8037029E-1,7.280274E5,1.695773E0,1.3233002E5,-1.8184994E-1,1.2807352E6,1.7890008E-1,-1.8054761E-1,4.4745E2,1.02408E3,-1.8221866E-1,1.5E1,1.2226099E6,-1.8184422E-1,-1.8173304E-1,1.8165722E-1,3.2676106E3,-1.6604477E-1,8.0065E4,-1.810765E-1,3.333286E4,-1.8225588E-1,7.983784E-2,-1.8114184E-1,1.5385827E-1,-1.5503792E-1,-1.8154791E-1,-1.15965284E-1,1.7071854E-1,-1.8931006E-1,-1.8254726E-1,-1.4411527E-1,-1.3958065E-1,1.7083532E-1,1.4820896E-1,-1.7292742E-1,-1.7666356E-1,-9.217339E-2],"split_indices":[12,8,14,15,5,0,0,15,1,14,15,8,16,1,4,0,0,0,16,1,14,0,5,14,1,0,5,0,0,4,14,0,0,5,0,0,0,3,0,15,0,3,0,0,0,0,0,0,0,0,0,0,0,0,0,0,0,0,0],"split_type":[0,0,0,0,0,0,0,0,0,0,0,0,0,0,0,0,0,0,0,0,0,0,0,0,0,0,0,0,0,0,0,0,0,0,0,0,0,0,0,0,0,0,0,0,0,0,0,0,0,0,0,0,0,0,0,0,0,0,0],"sum_hessian":[7.920368E4,3.330584E4,4.589784E4,2.2663541E4,1.0642298E4,3.6319363E4,9.578477E3,2.2395195E4,2.683458E2,2.089818E3,8.5524795E3,4.348119E2,9.143665E3,2.2253045E4,1.4214958E2,1.5858602E1,2.5248721E2,5.7963666E2,1.5101814E3,6.604732E3,1.9477476E3,1.09174545E2,3.2563736E2,4.2280392E2,8.720861E3,2.1808768E4,4.442787E2,4.0865208E1,1.0128438E2,3.1510303E1,5.4812634E2,5.498213E1,1.4551992E3,8.675258E2,5.7372065E3,1.1824064E3,7.653413E2,3.1621252E2,9.424829E0,2.153662E2,2.0743773E2,3.3676826E3,5.353178E3,9.2775856E1,3.515028E2,2.6295967E1,5.214336E0,5.076765E2,4.044982E1,1.443548E3,1.16512985E1,5.941726E2,2.733532E2,2.9839242E0,3.132286E2,1.963045E2,1.9061687E1,2.944615E3,4.2306757E2],"tree_param":{"num_deleted":"0","num_feature":"18","num_nodes":"59","size_leaf_vector":"1"}},{"base_weights":[-2.2043178E-3,-1.4216001E0,1.0271453E0,-1.6297369E0,-9.813526E-1,1.6825412E-1,-1.459119E0,-1.6662794E0,1.4700549E0,6.221822E-1,-1.3718951E0,7.0665073E-1,-1.5612442E0,-1.6722612E0,-6.911011E-1,-1.600319E-1,1.6768432E-1,-1.3997157E0,1.4818406E0,-1.6687795E0,-3.6530027E-1,-1.6683117E-1,1.4599009E0,-2.5497612E-1,-1.6249267E0,-1.682017E0,-1.1673609E0,-1.6672494E-1,1.6458647E-1,1.111851E0,-1.6195661E0,-1.6914241E-1,1.5628536E0,-1.5777582E0,-1.6823256E-1,-1.6814724E-1,1.6806585E-1,1.5437348E0,-1.5239687E-1,1.1200312E0,-1.67553E-1,-1.5305805E0,-1.6868322E-1,-1.68231E-1,-1.1993197E-1,9.570412E-2,-1.6671132E-1,-1.5458706E-1,1.4697431E-1,-1.6796745E-1,-1.149127E-1,1.6020052E-1,-1.4523157E-1,-1.687187E-1,-1.3300434E-1,1.5708177E-1,-1.3382809E-1,1.3673607E-1,-1.7125186E-1,-1.6332011E-1,-9.804405E-2],"categories":[],"categories_nodes":[],"categories_segments":[],"categories_sizes":[],"default_left":[0,0,0,0,0,0,0,0,0,0,0,0,0,0,0,0,0,0,0,0,0,0,0,0,0,0,0,0,0,0,0,0,0,0,0,0,0,0,0,0,0,0,0,0,0,0,0,0,0,0,0,0,0,0,0,0,0,0,0,0,0],"id":2,"left_children":[1,3,5,7,9,-1,11,13,15,17,19,21,23,25,27,-1,-1,29,31,33,35,-1,37,39,41,43,45,-1,-1,47,49,-1,51,53,-1,-1,-1,55,-1,57,-1,59,-1,-1,-1,-1,-1,-1,-1,-1,-1,-1,-1,-1,-1,-1,-1,-1,-1,-1,-1],"loss_changes":[1.127753E5,2.9715234E3,7.2907625E4,2.4978047E3,6.525164E3,0E0,2.0656348E3,1.2585547E2,1.6598578E2,3.5497656E3,2.5030928E3,7.556065E2,7.41125E2,1.0462891E2,3.0944934E2,0E0,0E0,3.383108E2,3.7094287E2,5.3222656E0,5.1447407E3,0E0,8.244318E1,8.135851E2,4.7060547E1,9.8046875E-1,4.4056042E2,0E0,0E0,4.9494106E1,1.392749E1,0E0,1.673003E2,2.0910156E1,0E0,0E0,0E0,2.6448425E1,0E0,1.5069934E2,0E0,1.891211E2,0E0,0E0,0E0,0E0,0E0,0E0,0E0,0E0,0E0,0E0,0E0,0E0,0E0,0E0,0E0,0E0,0E0,0E0,0E0],"parents":[2147483647,0,0,1,1,2,2,3,3,4,4,6,6,7,7,8,8,9,9,10,10,11,11,12,12,13,13,14,14,17,17,18,18,19,19,20,20,22,22,23,23,24,24,25,25,26,26,29,29,30,30,32,32,33,33,37,37,39,39,41,41],"right_children":[2,4,6,8,10,-1,12,14,16,18,20,22,24,26,28,-1,-1,30,32,34,36,-1,38,40,42,44,46,-1,-1,48,50,-1,52,54,-1,-1,-1,56,-1,58,-1,60,-1,-1,-1,-1,-1,-1,-1,-1,-1,-1,-1,-1,-1,-1,-1,-1,-1,-1,-1],"split_conditions":[1E0,1E0,9.999999E-1,7.4436175E5,4.4254125E4,1.6825412E-1,7E0,8.0065E4,1E0,1.531744E4,3.3E1,1E0,-7.053824E4,9.967975E5,9.980515E-1,-1.600319E-1,1.6768432E-1,8E0,3.984446E4,4.0047926E4,9.9979925E-1,-1.6683117E-1,7.280274E5,1.695773E0,1.3261748E5,6.064001E4,1.2511159E6,-1.6672494E-1,1.6458647E-1,1.9451945E4,1.02408E3,-1.6914241E-1,1.5741722E5,1.2226099E6,-1.6823256E-1,-1.6814724E-1,1.6806585E-1,3.1132748E1,-1.5239687E-1,5.3749744E5,-1.67553E-1,3.2306404E4,-1.6868322E-1,-1.68231E-1,-1.1993197E-1,9.570412E-2,-1.6671132E-1,-1.5458706E-1,1.4697431E-1,-1.6796745E-1,-1.149127E-1,1.6020052E-1,-1.4523157E-1,-1.687187E-1,-1.3300434E-1,1.5708177E-1,-1.3382809E-1,1.3673607E-1,-1.7125186E-1,-1.6332011E-1,-9.804405E-2],"split_indices":[12,8,14,15,5,0,0,15,13,14,15,8,16,1,14,0,0,0,16,1,14,0,5,14,16,15,5,0,0,1,14,0,17,5,0,0,0,14,0,5,0,15,0,0,0,0,0,0,0,0,0,0,0,0,0,0,0,0,0,0,0],"split_type":[0,0,0,0,0,0,0,0,0,0,0,0,0,0,0,0,0,0,0,0,0,0,0,0,0,0,0,0,0,0,0,0,0,0,0,0,0,0,0,0,0,0,0,0,0,0,0,0,0,0,0,0,0,0,0,0,0,0,0,0,0],"sum_hessian":[7.71856E4,3.244542E4,4.4740176E4,2.2028332E4,1.0417089E4,3.5406984E4,9.333192E3,2.1772129E4,2.562024E2,2.040083E3,8.377006E3,4.2001498E2,8.913178E3,2.1638682E4,1.3344763E2,1.57410965E1,2.404613E2,6.0843317E2,1.4316498E3,6.468525E3,1.9084811E3,1.00843956E2,3.1917105E2,4.1456348E2,8.498614E3,2.1226217E4,4.1246457E2,9.433188E1,3.9115757E1,4.8645924E1,5.5978723E2,3.5145084E1,1.3965048E3,8.531731E2,5.615352E3,1.1614772E3,7.4700397E2,3.109182E2,8.252818E0,2.1076636E2,2.0379712E2,3.3772632E3,5.121351E3,2.1210861E4,1.5355897E1,7.837681E1,3.3408777E2,5.37934E0,4.3266586E1,4.9408688E2,6.570038E1,1.3790664E3,1.7438349E1,5.877305E2,2.654426E2,3.084744E2,2.4438412E0,1.9431651E2,1.6449837E1,2.844664E3,5.325991E2],"tree_param":{"num_deleted":"0","num_feature":"18","num_nodes":"61","size_leaf_vector":"1"}},{"base_weights":[1.5245217E-3,-1.330738E0,9.644265E-1,-1.5269079E0,-9.1263705E-1,1.576836E-1,-1.3602089E0,-1.5614815E0,1.3681531E0,5.915523E-1,-1.2842058E0,6.4598036E-1,-1.4570594E0,-1.5766214E0,-1.2399019E0,1.571527E-1,-1.5397611E-1,-1.2971916E0,1.3858982E0,-1.3679013E0,1.5703344E-1,-1.5640007E-1,1.354829E0,-1.575967E-1,-1.5157814E0,-1.5769877E-1,1.103084E-1,1.0821643E0,-1.4172599E0,1.0921638E0,-1.5144796E0,-1.5810348E-1,1.4652952E0,-1.5447905E0,-6.603616E-1,1.4275149E0,-1.4198078E-1,-1.6093084E-1,1.2827163E0,-1.4137696E0,-1.5807712E-1,1.5789954E-1,-1.4880309E-1,-1.5855756E-1,-1.05624035E-1,-1.4397226E-1,1.3864242E-1,-1.5741102E-1,-1.06366925E-1,1.4936946E-1,-1.8132089E-1,-1.3442652E-1,-1.5766305E-1,-1.5759294E-1,1.5737689E-1,1.4577767E-1,-1.3062662E-1,-1.4835273E-1,1.620274E-1,-1.4803958E-1,9.963829E-3],"categories":[],"categories_nodes":[],"categories_segments":[],"categories_sizes":[],"default_left":[0,0,0,0,0,0,0,0,0,0,0,0,0,0,0,0,0,0,0,0,0,0,0,0,0,0,0,0,0,0,0,0,0,0,0,0,0,0,0,0,0,0,0,0,0,0,0,0,0,0,0,0,0,0,0,0,0,0,0,0,0],"id":3,"left_children":[1,3,5,7,9,-1,11,13,15,17,19,21,23,25,27,-1,-1,29,31,33,-1,-1,35,37,39,-1,-1,41,43,45,47,-1,49,51,53,55,-1,-1,57,59,-1,-1,-1,-1,-1,-1,-1,-1,-1,-1,-1,-1,-1,-1,-1,-1,-1,-1,-1,-1,-1],"loss_changes":[9.522406E4,2.5528125E3,6.134267E4,2.1236055E3,5.5606484E3,0E0,1.7466914E3,1.0001953E2,1.5065991E2,2.9592673E3,1.9080713E3,6.5139764E2,6.5381445E2,2.1371094E1,3.913164E2,0E0,0E0,3.0491254E2,3.293098E2,9.6904004E2,0E0,0E0,6.542346E1,7.7926495E2,5.2132812E1,0E0,0E0,8.883329E1,5.178186E1,3.8705524E1,1.2730225E1,0E0,1.2863232E2,3.7464844E1,3.1769639E3,2.7287292E1,0E0,0E0,1.771492E2,3.228921E2,0E0,0E0,0E0,0E0,0E0,0E0,0E0,0E0,0E0,0E0,0E0,0E0,0E0,0E0,0E0,0E0,0E0,0E0,0E0,0E0,0E0],"parents":[2147483647,0,0,1,1,2,2,3,3,4,4,6,6,7,7,8,8,9,9,10,10,11,11,12,12,13,13,14,14,17,17,18,18,19,19,22,22,23,23,24,24,27,27,28,28,29,29,30,30,32,32,33,33,34,34,35,35,38,38,39,39],"right_children":[2,4,6,8,10,-1,12,14,16,18,20,22,24,26,28,-1,-1,30,32,34,-1,-1,36,38,40,-1,-1,42,44,46,48,-1,50,52,54,56,-1,-1,58,60,-1,-1,-1,-1,-1,-1,-1,-1,-1,-1,-1,-1,-1,-1,-1,-1,-1,-1,-1,-1,-1],"split_conditions":[1E0,1E0,9.999999E-1,1.4839493E1,4.4254125E4,1.576836E-1,7E0,9.5029106E5,6.051526E2,1.531744E4,1E0,1E0,-9.0658E4,1.888114E6,1.188259E6,1.571527E-1,-1.5397611E-1,8E0,3.984446E4,9.8E1,1.5703344E-1,-1.5640007E-1,7.280274E5,1E0,1.3233002E5,-1.5769877E-1,1.103084E-1,9E0,1.1578792E6,9.8011744E-1,1.02408E3,-1.5810348E-1,1.5E1,4.0047926E4,1.3986157E0,3.1132748E1,-1.4198078E-1,-1.6093084E-1,1E0,1E0,-1.5807712E-1,1.5789954E-1,-1.4880309E-1,-1.5855756E-1,-1.05624035E-1,-1.4397226E-1,1.3864242E-1,-1.5741102E-1,-1.06366925E-1,1.4936946E-1,-1.8132089E-1,-1.3442652E-1,-1.5766305E-1,-1.5759294E-1,1.5737689E-1,1.4577767E-1,-1.3062662E-1,-1.4835273E-1,1.620274E-1,-1.4803958E-1,9.963829E-3],"split_indices":[12,8,14,2,5,0,0,16,6,14,11,8,16,1,6,0,0,0,16,3,0,0,5,11,1,0,0,0,1,14,14,0,0,1,14,14,0,0,8,11,0,0,0,0,0,0,0,0,0,0,0,0,0,0,0,0,0,0,0,0,0],"split_type":[0,0,0,0,0,0,0,0,0,0,0,0,0,0,0,0,0,0,0,0,0,0,0,0,0,0,0,0,0,0,0,0,0,0,0,0,0,0,0,0,0,0,0,0,0,0,0,0,0,0,0,0,0,0,0,0,0,0,0,0,0],"sum_hessian":[7.422721E4,3.114076E4,4.3086453E4,2.1194021E4,9.946739E3,3.410266E4,8.983792E3,2.0944357E4,2.4966248E2,1.9702313E3,7.976508E3,4.1346625E2,8.570326E3,1.999891E4,9.454487E2,2.3377248E2,1.589001E1,5.831121E2,1.3871191E3,7.749803E3,2.2670427E2,1.0011883E2,3.133474E2,3.7070282E2,8.199623E3,1.9996588E4,2.3214743E0,6.672661E1,8.787221E2,4.827221E1,5.348399E2,3.5659775E1,1.3514594E3,6.198866E3,1.5509371E3,3.0582144E2,7.52596E0,1.8456242E2,1.861404E2,3.199796E3,4.999827E3,5.624067E1,1.0485943E1,5.9699664E2,2.8172546E2,4.620827E0,4.3651382E1,4.7015848E2,6.468144E1,1.340393E3,1.1066485E1,8.5532623E2,5.34354E3,1.1003131E3,4.5062405E2,3.0293484E2,2.8866076E0,1.9874714E1,1.6626569E2,3.0648892E3,1.3490683E2],"tree_param":{"num_deleted":"0","num_feature":"18","num_nodes":"61","size_leaf_vector":"1"}},{"base_weights":[8.7295537E-4,-1.2591841E0,9.109011E-1,-1.4449514E0,-8.658652E-1,1.0092833E0,-1.5020896E-1,-1.478293E0,1.297148E0,5.54215E-1,-1.2155011E0,1.377532E0,5.903114E-1,-1.492811E-1,-1.1751176E0,-1.437051E-1,1.4878517E-1,1.1924047E0,-1.4917979E-1,-1.479988E0,-3.1089956E-1,1.4053552E0,-5.930911E-1,-1.2682512E-1,1.3436786E0,-1.3077716E0,8.552133E-1,-1.4005955E0,1.3767463E0,-1.3986442E0,-1.4924821E-1,1.4792031E0,-1.4915411E-1,1.1834875E0,1.4822255E0,-1.499358E-1,6.734859E-1,7.507176E-1,-1.4956121E-1,1.1408215E0,1.4810576E0,-7.406539E-2,-1.5038052E-1,1.5269233E-1,-1.38535E-1,-1.581413E-1,1.2306187E-1,1.414245E-1,-1.3867202E-1,-1.4621684E-1,-9.408655E-2,1.4871597E-1,-1.0040297E-1,1.3615088E-1,-1.498896E-1,-1.370102E-1,1.4835179E-1,1.226353E-1,-1.4571023E-1,9.3132935E-2,-1.01322286E-1,1.2470883E-1,-1.4007275E-1,1.3631834E-1,1.4926246E-1],"categories":[],"categories_nodes":[],"categories_segments":[],"categories_sizes":[],"default_left":[0,0,0,0,0,0,0,0,0,0,0,0,0,0,0,0,0,0,0,0,0,0,0,0,0,0,0,0,0,0,0,0,0,0,0,0,0,0,0,0,0,0,0,0,0,0,0,0,0,0,0,0,0,0,0,0,0,0,0,0,0,0,0,0,0],"id":4,"left_children":[1,3,5,7,9,11,-1,13,15,17,19,21,23,-1,25,-1,-1,27,-1,29,31,33,35,37,39,41,43,45,47,49,-1,51,-1,53,55,-1,57,59,-1,61,63,-1,-1,-1,-1,-1,-1,-1,-1,-1,-1,-1,-1,-1,-1,-1,-1,-1,-1,-1,-1,-1,-1,-1,-1],"loss_changes":[8.128131E4,2.1706367E3,9.77234E3,1.8476211E3,4.7364585E3,6.1006836E3,0E0,8.603516E1,1.2887082E2,2.4632344E3,1.8308086E3,1.1548008E3,9.995672E3,0E0,2.478783E2,0E0,0E0,6.8902954E2,0E0,3.9316406E0,3.6645625E3,3.5220703E2,3.3816278E2,1.1387421E4,2.4975684E2,9.4540405E1,8.759079E1,4.757454E1,1.4108496E2,2.2016724E1,0E0,1.51102295E1,0E0,2.5545352E3,5.8828125E1,0E0,1.4690665E2,1.8413801E3,0E0,9.868701E2,5.294922E0,0E0,0E0,0E0,0E0,0E0,0E0,0E0,0E0,0E0,0E0,0E0,0E0,0E0,0E0,0E0,0E0,0E0,0E0,0E0,0E0,0E0,0E0,0E0,0E0],"parents":[2147483647,0,0,1,1,2,2,3,3,4,4,5,5,7,7,8,8,9,9,10,10,11,11,12,12,14,14,17,17,19,19,20,20,21,21,22,22,23,23,24,24,25,25,26,26,27,27,28,28,29,29,31,31,33,33,34,34,36,36,37,37,39,39,40,40],"right_children":[2,4,6,8,10,12,-1,14,16,18,20,22,24,-1,26,-1,-1,28,-1,30,32,34,36,38,40,42,44,46,48,50,-1,52,-1,54,56,-1,58,60,-1,62,64,-1,-1,-1,-1,-1,-1,-1,-1,-1,-1,-1,-1,-1,-1,-1,-1,-1,-1,-1,-1,-1,-1,-1,-1],"split_conditions":[1E0,1E0,1E0,7.4436175E5,4.4254125E4,3.984446E4,-1.5020896E-1,9.5029106E5,1E0,4.4745E2,3.3E1,5.3749744E5,1.6303956E5,-1.492811E-1,5.648E3,-1.437051E-1,1.4878517E-1,3.1640762E4,-1.4917979E-1,4.0047926E4,4.4745E2,1E0,3.8606402E6,1.6323325E5,6.1400275E5,1.2066753E5,4.4745E2,1.8585627E4,1.5741722E5,3.5811125E4,-1.4924821E-1,1.6E1,-1.4915411E-1,1.1101777E5,5.502281E-11,-1.499358E-1,3.208707E4,1.5E1,-1.4956121E-1,6.115644E5,1E0,-7.406539E-2,-1.5038052E-1,1.5269233E-1,-1.38535E-1,-1.581413E-1,1.2306187E-1,1.414245E-1,-1.3867202E-1,-1.4621684E-1,-9.408655E-2,1.4871597E-1,-1.0040297E-1,1.3615088E-1,-1.498896E-1,-1.370102E-1,1.4835179E-1,1.226353E-1,-1.4571023E-1,9.3132935E-2,-1.01322286E-1,1.2470883E-1,-1.4007275E-1,1.3631834E-1,1.4926246E-1],"split_indices":[12,8,10,15,5,16,0,16,13,4,15,5,3,0,15,0,0,1,0,1,4,11,5,1,3,17,4,15,17,1,0,0,0,17,17,0,17,0,0,1,8,0,0,0,0,0,0,0,0,0,0,0,0,0,0,0,0,0,0,0,0,0,0,0,0],"split_type":[0,0,0,0,0,0,0,0,0,0,0,0,0,0,0,0,0,0,0,0,0,0,0,0,0,0,0,0,0,0,0,0,0,0,0,0,0,0,0,0,0,0,0,0,0,0,0,0,0,0,0,0,0,0,0,0,0,0,0,0,0,0,0,0,0],"sum_hessian":[7.088158E4,2.9724125E4,4.1157457E4,2.0186996E4,9.53713E3,3.9545688E4,1.61177E3,1.9944943E4,2.4205206E2,1.8840975E3,7.653032E3,2.1045652E4,1.8500033E4,1.902975E4,9.1519415E2,1.5355693E1,2.2669638E2,1.4364569E3,4.4764062E2,5.9211675E3,1.7318645E3,2.075293E4,2.9272394E2,9.478348E3,9.021687E3,8.5940015E2,5.5794E1,9.490458E1,1.3415524E3,8.0341565E2,5.117752E3,6.8818195E2,1.0436825E3,5.3442993E3,1.540863E4,1.705252E2,1.22198746E2,5.7758467E3,3.7025005E3,3.6464917E3,5.3751943E3,2.2198491E2,6.374153E2,4.317027E1,1.262373E1,8.9175415E1,5.7291656E0,1.3240736E3,1.7478704E1,7.035875E2,9.9828156E1,6.863838E2,1.7981585E0,5.0121514E3,3.3214804E2,6.49801E0,1.5402132E4,9.7359344E1,2.4839401E1,5.239809E3,5.360376E2,3.500633E3,1.4585863E2,4.9094644E2,4.884248E3],"tree_param":{"num_deleted":"0","num_feature":"18","num_nodes":"65","size_leaf_vector":"1"}},{"base_weights":[4.9497717E-4,-1.2009462E0,8.6273605E-1,-1.2473035E0,1.0371766E-1,1.4299755E-1,-1.2486194E0,-1.4192832E0,-9.441281E-1,1.1860723E0,-1.4432437E0,5.61039E-1,-1.335215E0,-1.1390427E0,-1.4248799E-1,4.4782153E-1,-1.2568394E0,-1.5706813E-1,1.2775563E0,-7.092355E-1,-1.4477704E-1,-1.3168842E0,1.1025566E0,-1.9921085E-1,-1.389145E0,-1.4307164E-1,1.1993885E0,-1.4070294E0,1.2363423E0,-1.4132066E0,-4.59205E-1,1.3130747E0,-1.4857268E-1,-1.0174304E-1,1.4015946E-2,2.1666676E-1,-1.4619097E-1,1.2015698E0,-1.2926445E0,-1.4484374E-1,1.1152481E0,-1.2944332E0,-1.4519936E0,-1.0699009E-1,1.4050435E-1,-3.4393672E-2,-1.4184658E-1,1.2760983E-1,-1.6755308E-1,-1.18848525E-1,-1.4253372E-1,-1.4241044E-1,1.4267844E-1,1.3588399E-1,-4.123608E-2,-1.0931217E-1,1.17031455E-1,1.2580556E-1,-1.2996781E-1,-1.3889699E-1,-1.442875E-2,1.4137417E-1,-1.4444E-1,-1.4056125E-1,-7.371389E-2,-1.527236E-1,-1.4369313E-1],"categories":[],"categories_nodes":[],"categories_segments":[],"categories_sizes":[],"default_left":[0,0,0,0,0,0,0,0,0,0,0,0,0,0,0,0,0,0,0,0,0,0,0,0,0,0,0,0,0,0,0,0,0,0,0,0,0,0,0,0,0,0,0,0,0,0,0,0,0,0,0,0,0,0,0,0,0,0,0,0,0,0,0,0,0,0,0],"id":5,"left_children":[1,3,5,7,9,-1,11,13,15,17,19,21,23,25,-1,27,29,-1,31,33,-1,35,37,39,41,-1,43,45,47,49,51,53,-1,-1,-1,55,-1,57,59,-1,61,63,65,-1,-1,-1,-1,-1,-1,-1,-1,-1,-1,-1,-1,-1,-1,-1,-1,-1,-1,-1,-1,-1,-1,-1,-1],"loss_changes":[6.9786875E4,1.702457E3,4.697281E4,1.4158828E3,1.6203406E3,0E0,1.3023613E3,2.5574219E1,4.2841426E3,1.4558765E2,2.9693604E-1,3.878941E2,4.8536523E2,2.3669736E2,0E0,2.6432048E3,1.00163184E3,0E0,5.608716E1,1.294987E0,0E0,1.9334305E1,7.1633026E1,5.934638E2,4.3166992E1,0E0,1.9587666E1,6.067749E0,1.4890613E2,1.6621094E1,2.4016697E3,4.360498E1,0E0,0E0,0E0,1.1595084E1,0E0,4.180063E1,1.1504574E0,0E0,1.3666179E2,1.8656445E2,2.9521484E0,0E0,0E0,0E0,0E0,0E0,0E0,0E0,0E0,0E0,0E0,0E0,0E0,0E0,0E0,0E0,0E0,0E0,0E0,0E0,0E0,0E0,0E0,0E0,0E0],"parents":[2147483647,0,0,1,1,2,2,3,3,4,4,6,6,7,7,8,8,9,9,10,10,11,11,12,12,13,13,15,15,16,16,18,18,19,19,21,21,22,22,23,23,24,24,26,26,27,27,28,28,29,29,30,30,31,31,35,35,37,37,38,38,40,40,41,41,42,42],"right_children":[2,4,6,8,10,-1,12,14,16,18,20,22,24,26,-1,28,30,-1,32,34,-1,36,38,40,42,-1,44,46,48,50,52,54,-1,-1,-1,56,-1,58,60,-1,62,64,66,-1,-1,-1,-1,-1,-1,-1,-1,-1,-1,-1,-1,-1,-1,-1,-1,-1,-1,-1,-1,-1,-1,-1,-1],"split_conditions":[1E0,8.1289175E5,9.999999E-1,3.0314217E4,1.2807352E6,1.4299755E-1,7E0,2.1827873E-11,4.4254125E4,1.1081E2,1.3160706E6,8.423697E4,-7.853193E4,2.0343198E6,-1.4248799E-1,1.02408E3,3.3E1,-1.5706813E-1,2.5761595E6,2.7613648E6,-1.4477704E-1,1.0660672E0,6.3570625E5,1E0,1.3261748E5,-1.4307164E-1,1.5E1,7E0,1.5E1,5.161452E4,9.9988294E-1,1.4E1,-1.4857268E-1,-1.0174304E-1,1.4015946E-2,1.367167E4,-1.4619097E-1,3.1132748E1,5.451098E5,-1.4484374E-1,1.695773E0,3.2581709E4,1.6323325E5,-1.0699009E-1,1.4050435E-1,-3.4393672E-2,-1.4184658E-1,1.2760983E-1,-1.6755308E-1,-1.18848525E-1,-1.4253372E-1,-1.4241044E-1,1.4267844E-1,1.3588399E-1,-4.123608E-2,-1.0931217E-1,1.17031455E-1,1.2580556E-1,-1.2996781E-1,-1.3889699E-1,-1.442875E-2,1.4137417E-1,-1.4444E-1,-1.4056125E-1,-7.371389E-2,-1.527236E-1,-1.4369313E-1],"split_indices":[12,1,14,16,5,0,0,17,5,17,5,6,16,5,0,14,15,0,16,6,0,14,5,11,16,0,0,0,0,16,14,0,0,0,0,5,0,14,1,0,14,3,1,0,0,0,0,0,0,0,0,0,0,0,0,0,0,0,0,0,0,0,0,0,0,0,0],"split_type":[0,0,0,0,0,0,0,0,0,0,0,0,0,0,0,0,0,0,0,0,0,0,0,0,0,0,0,0,0,0,0,0,0,0,0,0,0,0,0,0,0,0,0,0,0,0,0,0,0,0,0,0,0,0,0,0,0,0,0,0,0,0,0,0,0,0,0],"sum_hessian":[6.736427E4,2.8145758E4,3.9218516E4,2.7180043E4,9.657144E2,3.0913559E4,8.304954E3,1.734003E4,9.840014E3,5.683165E2,3.9739786E2,3.7900925E2,7.9259453E3,3.435178E2,1.6996512E4,1.8050208E3,8.034993E3,1.7734715E1,5.5058185E2,3.4021237E0,3.9399573E2,8.450912E1,2.9450015E2,3.5943115E2,7.566514E3,3.0576746E2,3.775034E1,5.382058E2,1.266815E3,6.717359E3,1.3176344E3,5.441128E2,6.4690375E0,2.351188E0,1.0509359E0,7.2587304E0,7.725039E1,2.8328787E2,1.121226E1,1.8423615E2,1.75195E2,3.0267908E3,4.539723E3,2.7876556E0,3.4962685E1,6.058946E0,5.3214685E2,1.2503062E3,1.650876E1,3.4910623E2,6.3682524E3,8.718356E2,4.4579877E2,5.3026074E2,1.3852086E1,2.996682E0,4.2620487E0,2.7751773E2,5.7701626E0,1.0151237E1,1.0610237E0,1.5729922E2,1.7895782E1,2.5221118E3,5.04679E2,7.404567E2,3.7992664E3],"tree_param":{"num_deleted":"0","num_feature":"18","num_nodes":"67","size_leaf_vector":"1"}},{"base_weights":[1.9782818E-4,-1.1524999E0,8.268254E-1,-1.3240429E0,-7.906171E-1,1.3727024E-1,-1.1911066E0,-1.3535011E0,1.1870848E0,-8.791278E-1,1.3788179E-1,5.158448E-1,-1.2730094E0,-1.3589674E0,-5.4166543E-1,-1.3127236E-1,1.3669495E-1,-1.2701851E-1,-1.1782603E0,-1.389889E-1,1.147546E0,-1.3487439E0,-9.3628055E-1,-1.3672857E0,-8.665258E-1,-1.3573669E-1,1.3575731E-1,-9.6792936E-1,6.027524E-1,-1.3550597E0,-5.1457393E-1,-1.2032267E-1,1.1827786E0,-1.2554319E0,-1.4032763E0,-1.394289E-1,1.621875E0,-1.3680796E-1,-1.17728494E-1,4.7712844E-2,-1.3764082E-1,-1.3507938E-1,-5.1293876E-2,8.884022E-2,-1.3615468E-1,-1.2087207E-1,-1.3728048E-1,-1.3676126E-1,1.3775761E-1,-2.4837947E-2,1.2299188E-1,-1.3497464E-1,7.66975E-2,-1.4570099E-1,-1.3795906E-1,1.526479E-1,2.605882E-1],"categories":[],"categories_nodes":[],"categories_segments":[],"categories_sizes":[],"default_left":[0,0,0,0,0,0,0,0,0,0,0,0,0,0,0,0,0,0,0,0,0,0,0,0,0,0,0,0,0,0,0,0,0,0,0,0,0,0,0,0,0,0,0,0,0,0,0,0,0,0,0,0,0,0,0,0,0],"id":6,"left_children":[1,3,5,7,9,-1,11,13,15,17,-1,19,21,23,25,-1,-1,27,29,-1,31,33,35,37,39,-1,-1,41,43,45,47,-1,49,51,53,-1,55,-1,-1,-1,-1,-1,-1,-1,-1,-1,-1,-1,-1,-1,-1,-1,-1,-1,-1,-1,-1],"loss_changes":[6.0402395E4,1.6424258E3,4.066736E4,1.3300879E3,1.6364814E3,0E0,1.0996279E3,7.803906E1,9.566165E1,1.8408638E3,0E0,4.357269E2,1.9003027E2,7.103906E1,1.8835062E2,0E0,0E0,1.4301982E3,6.862539E2,0E0,2.3900635E1,2.9388672E1,1.6198494E3,1.0039062E0,2.0318513E2,0E0,0E0,1.8792468E2,7.013744E2,1.034375E1,1.9922131E3,0E0,1.837851E1,4.3353027E2,2.8969727E0,0E0,1.5745117E1,0E0,0E0,0E0,0E0,0E0,0E0,0E0,0E0,0E0,0E0,0E0,0E0,0E0,0E0,0E0,0E0,0E0,0E0,0E0,0E0],"parents":[2147483647,0,0,1,1,2,2,3,3,4,4,6,6,7,7,8,8,9,9,11,11,12,12,13,13,14,14,17,17,18,18,20,20,21,21,22,22,23,23,24,24,27,27,28,28,29,29,30,30,32,32,33,33,34,34,36,36],"right_children":[2,4,6,8,10,-1,12,14,16,18,-1,20,22,24,26,-1,-1,28,30,-1,32,34,36,38,40,-1,-1,42,44,46,48,-1,50,52,54,-1,56,-1,-1,-1,-1,-1,-1,-1,-1,-1,-1,-1,-1,-1,-1,-1,-1,-1,-1,-1,-1],"split_conditions":[1E0,1E0,9.999999E-1,7.4436175E5,1E0,1.3727024E-1,7E0,6.807257E4,1E0,2.8006794E5,1.3788179E-1,1E0,1E0,1.1127902E6,9.980515E-1,-1.3127236E-1,1.3669495E-1,9.9770125E4,3.3E1,-1.389889E-1,4.2895415E3,1.3633912E5,1E0,9.646681E5,3.1615728E6,-1.3573669E-1,1.3575731E-1,3.3E1,3.2581709E4,4.0047926E4,9.9988294E-1,-1.2032267E-1,8.423697E4,1.2714909E5,1.6323325E5,-1.394289E-1,1.695773E0,-1.3680796E-1,-1.17728494E-1,4.7712844E-2,-1.3764082E-1,-1.3507938E-1,-5.1293876E-2,8.884022E-2,-1.3615468E-1,-1.2087207E-1,-1.3728048E-1,-1.3676126E-1,1.3775761E-1,-2.4837947E-2,1.2299188E-1,-1.3497464E-1,7.66975E-2,-1.4570099E-1,-1.3795906E-1,1.526479E-1,2.605882E-1],"split_indices":[12,8,14,15,11,0,0,15,13,6,0,8,11,1,14,0,0,1,15,0,3,6,8,1,6,0,0,15,3,1,14,0,6,6,1,0,14,0,0,0,0,0,0,0,0,0,0,0,0,0,0,0,0,0,0,0,0],"split_type":[0,0,0,0,0,0,0,0,0,0,0,0,0,0,0,0,0,0,0,0,0,0,0,0,0,0,0,0,0,0,0,0,0,0,0,0,0,0,0,0,0,0,0,0,0,0,0,0,0,0,0,0,0,0,0,0,0],"sum_hessian":[6.3389184E4,2.6473121E4,3.6916062E4,1.7957898E4,8.515222E3,2.9056277E4,7.859784E3,1.775013E4,2.0776663E2,8.1819995E3,3.3322235E2,3.596184E2,7.5001655E3,1.7630742E4,1.19388885E2,1.3522936E1,1.942437E2,2.3286062E3,5.8533936E3,8.922916E1,2.7038925E2,6.120567E3,1.3795986E3,1.7336127E4,2.946164E2,8.371818E1,3.5670704E1,1.0817666E3,1.2468397E3,4.6212866E3,1.2321066E3,3.5031395E0,2.668861E2,2.2664287E3,3.8541384E3,1.1704907E3,2.0910797E2,1.7257816E4,7.831042E1,8.106258E1,2.1355383E2,5.863756E2,4.95391E2,1.0890212E3,1.578185E2,5.0724643E2,4.1140405E3,8.494334E2,3.826732E2,8.374393E0,2.5851172E2,2.1657615E3,1.006672E2,1.1606222E3,2.693516E3,1.9295311E2,1.615487E1],"tree_param":{"num_deleted":"0","num_feature":"18","num_nodes":"57","size_leaf_vector":"1"}},{"base_weights":[-2.6228276E-4,-1.1070156E0,7.9591125E-1,-1.276686E0,-7.5302035E-1,1.3248914E-1,-1.1462222E0,-1.3052521E0,1.1778903E0,5.0465214E-1,-1.0746964E0,4.807042E-1,-1.2239484E0,-1.314995E0,-7.966976E-1,1.3184762E-1,-1.23200595E-1,-1.3353537E-1,1.0590197E0,-1.2890513E0,-3.2430196E-1,-1.3387926E-1,1.0756801E0,-2.205499E-1,-1.2774607E0,-1.321205E-1,-1.1031096E0,9.7329646E-1,-1.3504526E-1,-1.1074624E0,1.216322E0,-1.0719575E0,-1.3243014E-1,-1.3246226E-1,1.3220887E-1,1.1752267E0,-1.0837868E0,-1.3441198E-1,1.0018271E0,-1.182816E0,-1.3404796E0,9.871453E-2,-1.3271776E-1,1.2845038E-1,-1.0794266E-1,-1.409797E-1,1.343356E-1,1.2455604E-1,-1.5958671E-1,-1.3367987E-1,-5.9862237E-2,4.892981E-2,1.2852217E-1,-1.4085537E-1,7.932695E-2,-1.3335824E-1,1.3658151E-1,-1.299245E-1,-6.172624E-2,-1.3922307E-1,-1.3297968E-1],"categories":[],"categories_nodes":[],"categories_segments":[],"categories_sizes":[],"default_left":[0,0,0,0,0,0,0,0,0,0,0,0,0,0,0,0,0,0,0,0,0,0,0,0,0,0,0,0,0,0,0,0,0,0,0,0,0,0,0,0,0,0,0,0,0,0,0,0,0,0,0,0,0,0,0,0,0,0,0,0,0],"id":7,"left_children":[1,3,5,7,9,-1,11,13,15,17,19,21,23,25,27,-1,-1,-1,29,31,33,-1,35,37,39,-1,41,43,-1,45,47,49,-1,-1,-1,51,53,-1,55,57,59,-1,-1,-1,-1,-1,-1,-1,-1,-1,-1,-1,-1,-1,-1,-1,-1,-1,-1,-1,-1],"loss_changes":[5.2361625E4,1.4923242E3,3.550752E4,1.1798926E3,3.260482E3,0E0,9.362031E2,8.1265625E1,6.730188E1,1.6762068E3,1.0317676E3,3.6742792E2,3.788916E2,1.9988281E1,3.0988068E2,0E0,0E0,0E0,4.3153015E2,3.6773438E1,2.3521E3,0E0,5.615973E1,4.9406262E2,3.8398438E1,0E0,2.2150403E2,4.9683395E1,0E0,6.5595924E1,9.87926E1,8.725568E1,0E0,0E0,0E0,1.7822205E1,8.29326E0,0E0,1.483658E2,1.762024E2,3.6914062E-1,0E0,0E0,0E0,0E0,0E0,0E0,0E0,0E0,0E0,0E0,0E0,0E0,0E0,0E0,0E0,0E0,0E0,0E0,0E0,0E0],"parents":[2147483647,0,0,1,1,2,2,3,3,4,4,6,6,7,7,8,8,9,9,10,10,11,11,12,12,13,13,14,14,18,18,19,19,20,20,22,22,23,23,24,24,26,26,27,27,29,29,30,30,31,31,35,35,36,36,38,38,39,39,40,40],"right_children":[2,4,6,8,10,-1,12,14,16,18,20,22,24,26,28,-1,-1,-1,30,32,34,-1,36,38,40,-1,42,44,-1,46,48,50,-1,-1,-1,52,54,-1,56,58,60,-1,-1,-1,-1,-1,-1,-1,-1,-1,-1,-1,-1,-1,-1,-1,-1,-1,-1,-1,-1],"split_conditions":[1E0,1E0,9.999999E-1,1.4875495E1,4.4254125E4,1.3248914E-1,7E0,1.0582066E6,6.051526E2,1.3976385E2,9.8E1,1E0,-5.459288E4,9.7693956E5,1.2807352E6,1.3184762E-1,-1.23200595E-1,-1.3353537E-1,3.414778E4,4.0047926E4,1.3986157E0,-1.3387926E-1,5.501559E5,1E0,1.3261748E5,-1.321205E-1,1.188259E6,1.1E1,-1.3504526E-1,9.8E1,1.5E1,1.1697911E6,-1.3243014E-1,-1.3246226E-1,1.3220887E-1,8.452414E4,5.7623456E5,-1.3441198E-1,1E0,3.2581709E4,1.6323325E5,9.871453E-2,-1.3271776E-1,1.2845038E-1,-1.0794266E-1,-1.409797E-1,1.343356E-1,1.2455604E-1,-1.5958671E-1,-1.3367987E-1,-5.9862237E-2,4.892981E-2,1.2852217E-1,-1.4085537E-1,7.932695E-2,-1.3335824E-1,1.3658151E-1,-1.299245E-1,-6.172624E-2,-1.3922307E-1,-1.3297968E-1],"split_indices":[12,8,14,2,5,0,0,1,6,14,3,8,16,16,5,0,0,0,1,1,14,0,5,11,16,0,6,0,0,3,0,5,0,0,0,16,1,0,8,3,1,0,0,0,0,0,0,0,0,0,0,0,0,0,0,0,0,0,0,0,0],"split_type":[0,0,0,0,0,0,0,0,0,0,0,0,0,0,0,0,0,0,0,0,0,0,0,0,0,0,0,0,0,0,0,0,0,0,0,0,0,0,0,0,0,0,0,0,0,0,0,0,0,0,0,0,0,0,0,0,0,0,0,0,0],"sum_hessian":[5.9420992E4,2.4861234E4,3.4559758E4,1.6804309E4,8.056926E3,2.7161957E4,7.3978022E3,1.6611453E4,1.9285472E2,1.6408899E3,6.416036E3,3.370772E2,7.0607246E3,1.6297636E4,3.1381763E2,1.8265224E2,1.0202478E1,3.7958792E2,1.261302E3,4.989917E3,1.426119E3,8.275472E1,2.543225E2,3.577496E2,6.702975E3,1.5828496E4,4.691392E2,7.460295E1,2.3921468E2,8.49715E1,1.1763304E3,7.014323E2,4.2884844E3,8.87241E2,5.3887805E2,2.4355112E2,1.0771377E1,1.863568E2,1.713928E2,2.6871167E3,4.0158586E3,4.5091347E1,4.2404785E2,6.5106575E1,9.496373E0,7.601856E1,8.952936E0,1.1647773E3,1.1553182E1,4.486043E2,2.5282802E2,3.44112E1,2.0913991E2,9.395388E0,1.3759882E0,2.2751492E1,1.4864131E2,2.2272927E3,4.5982385E2,6.650129E2,3.3508457E3],"tree_param":{"num_deleted":"0","num_feature":"18","num_nodes":"61","size_leaf_vector":"1"}},{"base_weights":[-2.1079095E-4,5.378121E-1,-1.0039436E0,-1.2430096E0,1.2672154E0,1.2996149E-1,-1.0353422E0,-1.2821376E-1,1.2704239E0,1.2805095E0,-1.1463195E-1,-1.2525346E0,7.839514E-1,-1.1844938E0,-8.1810194E-1,3.9360266E-2,1.2771381E-1,1.2820472E0,-1.2024077E-1,1.1907908E0,-9.1760296E-1,-1.2859787E-1,-5.292837E-1,-4.035361E-1,1.2036288E0,-1.2486722E0,-9.27434E-1,-1.023972E0,1.2969776E0,1.2839966E-1,-1.7013831E-1,-9.5626734E-2,1.2643893E0,-1.3029139E-1,9.493419E-1,-1.1100377E-1,9.032836E-2,-1.2149593E0,4.2347002E-1,-1.2819353E-1,1.2424841E0,-9.625649E-1,-1.259202E0,1.131984E-1,-1.2711998E0,-1.6210607E-1,-1.2440277E0,1.306748E-1,-9.2333905E-2,-1.22102596E-1,1.2278455E-1,-1.8831396E-2,1.284669E-1,1.576935E-1,-1.18556716E-1,-1.5552926E-1,-7.000386E-4,1.07067876E-1,-1.6065882E-1,1.2617964E-1,-8.91962E-2,-1.24661386E-1,1.2937902E-1,-1.2707551E-1,-1.1043848E-1,-4.5653723E-2,2.0060687E-1,-1.3054188E-1,1.2302984E-1,-1.2990743E-1,1.0442561E-1,3.2388422E-1,-1.2496334E-1],"categories":[],"categories_nodes":[],"categories_segments":[],"categories_sizes":[],"default_left":[0,0,0,0,0,0,0,0,0,0,0,0,0,0,0,0,0,0,0,0,0,0,0,0,0,0,0,0,0,0,0,0,0,0,0,0,0,0,0,0,0,0,0,0,0,0,0,0,0,0,0,0,0,0,0,0,0,0,0,0,0,0,0,0,0,0,0,0,0,0,0,0,0],"id":8,"left_children":[1,3,5,7,9,11,13,-1,15,17,19,21,23,25,27,-1,-1,29,-1,31,33,-1,35,37,39,41,43,45,47,-1,49,-1,51,-1,53,-1,-1,55,57,-1,59,61,63,65,67,69,71,-1,-1,-1,-1,-1,-1,-1,-1,-1,-1,-1,-1,-1,-1,-1,-1,-1,-1,-1,-1,-1,-1,-1,-1,-1,-1],"loss_changes":[3.0006807E4,4.6990074E4,6.904961E2,1.0354268E3,4.7160547E2,4.7416797E2,6.103867E2,0E0,4.4891357E-1,9.858984E1,2.5839215E2,3.3939514E0,1.7785365E2,1.8336719E2,3.347213E3,0E0,0E0,7.213672E1,0E0,1.6050201E1,1.10970856E2,0E0,8.610775E0,6.338219E1,2.701355E1,2.5743164E1,8.0091956E2,1.3279849E3,1.6001831E1,0E0,5.283083E1,0E0,2.9297943E0,0E0,3.761093E1,0E0,0E0,1.9535942E1,6.3654278E1,0E0,1.1829529E1,2.0789532E2,1.4026367E1,6.0134753E2,1.4564355E2,1.956596E3,1.4423438E2,0E0,0E0,0E0,0E0,0E0,0E0,0E0,0E0,0E0,0E0,0E0,0E0,0E0,0E0,0E0,0E0,0E0,0E0,0E0,0E0,0E0,0E0,0E0,0E0,0E0,0E0],"parents":[2147483647,0,0,1,1,2,2,3,3,4,4,5,5,6,6,8,8,9,9,10,10,11,11,12,12,13,13,14,14,17,17,19,19,20,20,22,22,23,23,24,24,25,25,26,26,27,27,28,28,30,30,32,32,34,34,37,37,38,38,40,40,41,41,42,42,43,43,44,44,45,45,46,46],"right_children":[2,4,6,8,10,12,14,-1,16,18,20,22,24,26,28,-1,-1,30,-1,32,34,-1,36,38,40,42,44,46,48,-1,50,-1,52,-1,54,-1,-1,56,58,-1,60,62,64,66,68,70,72,-1,-1,-1,-1,-1,-1,-1,-1,-1,-1,-1,-1,-1,-1,-1,-1,-1,-1,-1,-1,-1,-1,-1,-1,-1,-1],"split_conditions":[1.0660672E0,9.8011744E-1,7E0,1.4875495E1,9.999999E-1,9.216E2,1.7196498E4,-1.2821376E-1,3.131734E6,1E0,7E0,6.2833484E2,1.3395549E1,3.2306404E4,3.3E1,3.9360266E-2,1.2771381E-1,4.4745E2,-1.2024077E-1,1.7330898E4,1E0,-1.2859787E-1,1.02408E3,2.9028445E4,2.292831E4,7.2120004E0,1.1797595E1,4.4254125E4,2.0014939E6,1.2839966E-1,1.5913628E6,-9.5626734E-2,2.8706383E4,-1.3029139E-1,6.839464E4,-1.1100377E-1,9.032836E-2,1E0,1.1559497E1,-1.2819353E-1,7.742348E5,1.49731E3,1E0,3.7814217E0,1.3976385E2,9.404704E4,9.741335E0,1.306748E-1,-9.2333905E-2,-1.22102596E-1,1.2278455E-1,-1.8831396E-2,1.284669E-1,1.576935E-1,-1.18556716E-1,-1.5552926E-1,-7.000386E-4,1.07067876E-1,-1.6065882E-1,1.2617964E-1,-8.91962E-2,-1.24661386E-1,1.2937902E-1,-1.2707551E-1,-1.1043848E-1,-4.5653723E-2,2.0060687E-1,-1.3054188E-1,1.2302984E-1,-1.2990743E-1,1.0442561E-1,3.2388422E-1,-1.2496334E-1],"split_indices":[14,14,0,2,14,15,14,0,17,10,0,15,14,15,15,0,0,4,0,15,11,0,14,15,16,2,2,5,1,0,1,0,6,0,1,0,0,11,2,0,5,1,11,14,14,16,2,0,0,0,0,0,0,0,0,0,0,0,0,0,0,0,0,0,0,0,0,0,0,0,0,0,0],"split_type":[0,0,0,0,0,0,0,0,0,0,0,0,0,0,0,0,0,0,0,0,0,0,0,0,0,0,0,0,0,0,0,0,0,0,0,0,0,0,0,0,0,0,0,0,0,0,0,0,0,0,0,0,0,0,0,0,0,0,0,0,0,0,0,0,0,0,0,0,0,0,0,0,0],"sum_hessian":[5.5562953E4,3.617358E4,1.9389375E4,1.0510855E4,2.5662725E4,5.2235565E2,1.8867018E4,1.0350218E4,1.6063799E2,2.541826E4,2.4446407E2,1.6745354E2,3.5490213E2,1.1183953E4,7.6830654E3,1.6738111E0,1.5896417E2,2.5403012E4,1.5248435E1,9.291895E1,1.515451E2,1.5930885E2,8.144687E0,9.268528E1,2.6221686E2,8.946484E3,2.2374683E3,7.0020415E3,6.81024E2,2.5369072E4,3.394028E1,2.6821005E0,9.023685E1,1.25869545E2,2.5675566E1,5.9555035E0,2.189183E0,4.6546616E1,4.6138664E1,3.5435615E0,2.586733E2,3.2085602E2,8.625629E3,5.557617E2,1.6817065E3,1.4245221E3,5.577519E3,6.7844995E2,2.5740104E0,1.9447702E1,1.449258E1,1.1282897E0,8.910856E1,2.0044498E1,5.6310663E0,3.6090775E1,1.0455841E1,3.5343338E1,1.0795324E1,2.56759E2,1.9142964E0,2.8537778E2,3.5478252E1,8.0199473E3,6.056817E2,4.2776685E2,1.2799487E2,1.6594839E3,2.2222544E1,7.3331396E2,6.912082E2,6.245535E0,5.571274E3],"tree_param":{"num_deleted":"0","num_feature":"18","num_nodes":"73","size_leaf_vector":"1"}},{"base_weights":[-2.5650908E-4,5.223907E-1,-9.7023064E-1,-1.20993E0,1.2329384E0,-1.2221184E0,-7.6987016E-1,-1.2481679E-1,1.2355961E0,1.2459334E0,-1.17178276E-1,-1.2422063E0,-7.8461075E-1,-8.772305E-1,1.361717E0,4.2565428E-2,1.2426478E-1,1.2474394E0,-1.1673045E-1,-7.479442E-1,1.2511209E-1,-1.2495137E0,-9.6503353E-1,6.178658E-1,-1.2620877E0,-2.7544397E-1,-1.1138287E0,1.8902298E0,1.2928687E-1,1.2495992E-1,-2.4027096E-1,-1.2697057E-1,9.2362195E-1,-1.2515293E-1,-1.1320467E0,-1.2712157E-1,1.2115206E-1,9.836313E-1,-1.581112E-1,-5.0028663E-2,-1.2654838E-1,-9.659229E-1,9.6403015E-1,-5.886433E-1,-1.2027842E0,2.5601667E-1,1.5159343E-1,-1.1969636E-1,1.1885233E-1,-1.2485637E-1,1.5229979E-1,-1.2422242E-1,1.1642752E-1,-1.4421493E-1,1.3448477E-1,-5.1028427E-2,-1.2613593E-1,1.10518254E-1,-1.7908366E-1,-1.120616E-1,3.7087493E-2,-7.0239514E-2,-1.220439E-1],"categories":[],"categories_nodes":[],"categories_segments":[],"categories_sizes":[],"default_left":[0,0,0,0,0,0,0,0,0,0,0,0,0,0,0,0,0,0,0,0,0,0,0,0,0,0,0,0,0,0,0,0,0,0,0,0,0,0,0,0,0,0,0,0,0,0,0,0,0,0,0,0,0,0,0,0,0,0,0,0,0,0,0],"id":9,"left_children":[1,3,5,7,9,11,13,-1,15,17,19,21,23,25,27,-1,-1,29,-1,31,-1,33,35,37,39,41,43,45,-1,-1,47,-1,49,-1,51,-1,-1,53,-1,-1,-1,55,57,59,61,-1,-1,-1,-1,-1,-1,-1,-1,-1,-1,-1,-1,-1,-1,-1,-1,-1,-1],"loss_changes":[2.6185266E4,4.1317664E4,9.118379E2,9.145654E2,4.1777344E2,6.943262E1,2.3070962E3,0E0,3.3242798E-1,8.713281E1,1.9757845E2,1.43046875E1,2.3809947E2,1.3656421E3,1.5151367E1,0E0,0E0,7.601172E1,0E0,1.377309E2,0E0,3.486328E-1,1.35553E2,7.449121E1,5.178833E-2,2.319124E3,3.209873E2,9.551224E0,0E0,0E0,4.9260963E1,0E0,5.1149117E1,0E0,3.5922318E1,0E0,0E0,7.060584E1,0E0,0E0,0E0,2.335968E2,3.790114E2,5.1051898E2,5.1154297E1,0E0,0E0,0E0,0E0,0E0,0E0,0E0,0E0,0E0,0E0,0E0,0E0,0E0,0E0,0E0,0E0,0E0,0E0],"parents":[2147483647,0,0,1,1,2,2,3,3,4,4,5,5,6,6,8,8,9,9,10,10,11,11,12,12,13,13,14,14,17,17,19,19,21,21,22,22,23,23,24,24,25,25,26,26,27,27,30,30,32,32,34,34,37,37,41,41,42,42,43,43,44,44],"right_children":[2,4,6,8,10,12,14,-1,16,18,20,22,24,26,28,-1,-1,30,-1,32,-1,34,36,38,40,42,44,46,-1,-1,48,-1,50,-1,52,-1,-1,54,-1,-1,-1,56,58,60,62,-1,-1,-1,-1,-1,-1,-1,-1,-1,-1,-1,-1,-1,-1,-1,-1,-1,-1],"split_conditions":[1.0660672E0,9.8011744E-1,1E0,1.4875495E1,9.999999E-1,9.0981206E5,1E0,-1.2481679E-1,3.131734E6,1E0,2.5502422E6,1.3250683E5,1.2807352E6,4.956027E4,4.957052E4,4.2565428E-2,1.2426478E-1,4.4745E2,-1.1673045E-1,1E0,1.2511209E-1,6.689368E5,2.6404009E1,2.1923717E5,1.3160706E6,9.25083E3,1.0681586E1,9.480693E3,1.2928687E-1,1.2495992E-1,1.7620384E6,-1.2697057E-1,1E0,-1.2515293E-1,9.8E1,-1.2712157E-1,1.2115206E-1,1.1081E2,-1.581112E-1,-5.0028663E-2,-1.2654838E-1,1.1819268E1,1.719833E4,3.3E1,7.5131234E4,2.5601667E-1,1.5159343E-1,-1.1969636E-1,1.1885233E-1,-1.2485637E-1,1.5229979E-1,-1.2422242E-1,1.1642752E-1,-1.4421493E-1,1.3448477E-1,-5.1028427E-2,-1.2613593E-1,1.10518254E-1,-1.7908366E-1,-1.120616E-1,3.7087493E-2,-7.0239514E-2,-1.220439E-1],"split_indices":[14,14,8,2,14,14,11,0,17,10,1,15,5,5,1,0,0,4,0,11,0,14,14,17,5,14,2,3,0,0,1,0,8,0,3,0,0,17,0,0,0,2,17,15,5,0,0,0,0,0,0,0,0,0,0,0,0,0,0,0,0,0,0],"split_type":[0,0,0,0,0,0,0,0,0,0,0,0,0,0,0,0,0,0,0,0,0,0,0,0,0,0,0,0,0,0,0,0,0,0,0,0,0,0,0,0,0,0,0,0,0,0,0,0,0,0,0,0,0,0,0,0,0,0,0,0,0,0,0],"sum_hessian":[5.165012E4,3.3564926E4,1.8085193E4,9.762696E3,2.3802232E4,8.010062E3,1.0075132E4,9.61288E3,1.4981633E2,2.3575393E4,2.2683923E2,7.6566685E3,3.533935E2,9.592577E3,4.8255493E2,1.8227423E0,1.4799359E2,2.3561174E4,1.4219372E1,1.5557487E2,7.1264366E1,7.456575E3,2.0009322E2,8.96814E1,2.637121E2,2.7077048E3,6.8848726E3,5.256732E1,4.299876E2,2.3527176E4,3.399726E1,1.1874904E2,3.6825832E1,7.3213076E3,1.3526729E2,1.7578148E2,2.4311737E1,7.736554E1,1.2315857E1,1.8286183E0,2.6188345E2,1.7391115E3,9.6859326E2,9.9834546E2,5.886527E3,1.6748993E1,3.5818325E1,2.0459942E1,1.3537318E1,7.729696E0,2.9096136E1,1.2951233E2,5.754965E0,9.639324E0,6.772621E1,6.8515466E2,1.0539568E3,9.219535E2,4.663974E1,6.421558E2,3.561896E2,2.0200084E2,5.6845264E3],"tree_param":{"num_deleted":"0","num_feature":"18","num_nodes":"63","size_leaf_vector":"1"}},{"base_weights":[3.2257233E-4,-1.01306E0,7.2934306E-1,-1.1762848E0,-6.778656E-1,1.2208801E-1,-1.0300837E0,-1.2026843E0,1.0564996E0,4.338886E-1,-9.6825296E-1,4.481498E-1,-1.1047446E0,-1.2123944E0,-6.5276754E-1,-1.1481091E-1,1.2152555E-1,-1.22759156E-1,9.2983776E-1,-1.201095E0,-1.9927382E-1,-1.2315633E-1,9.731572E-1,-1.471048E-1,-1.1614072E0,-1.2173865E0,-5.226244E-1,1.1201488E0,-1.2299722E-1,-1.1132573E0,1.0835181E0,-1.070858E0,-1.22204386E-1,-1.22132435E-1,1.2583648E-1,1.0517974E0,-1.17555134E-1,-1.2414368E-1,9.890809E-1,-1.0561816E0,-1.233866E-1,-1.218611E-1,-9.919806E-2,1.2238035E-1,-1.2061664E-1,-1.7506598E-1,1.420042E-1,-1.3073671E-1,1.2325566E-1,1.11633815E-1,-1.542705E-1,-1.2327011E-1,-7.1093224E-2,2.6925279E-2,1.1908706E-1,-1.20420806E-1,1.3053979E-1,-1.1855564E-1,-4.8885483E-2],"categories":[],"categories_nodes":[],"categories_segments":[],"categories_sizes":[],"default_left":[0,0,0,0,0,0,0,0,0,0,0,0,0,0,0,0,0,0,0,0,0,0,0,0,0,0,0,0,0,0,0,0,0,0,0,0,0,0,0,0,0,0,0,0,0,0,0,0,0,0,0,0,0,0,0,0,0,0,0],"id":10,"left_children":[1,3,5,7,9,-1,11,13,15,17,19,21,23,25,27,-1,-1,-1,29,31,33,-1,35,37,39,41,43,45,-1,47,49,51,-1,-1,-1,53,-1,-1,55,57,-1,-1,-1,-1,-1,-1,-1,-1,-1,-1,-1,-1,-1,-1,-1,-1,-1,-1,-1],"loss_changes":[3.5401223E4,1.0961328E3,2.410349E4,7.9595703E2,2.1208813E3,0E0,6.722217E2,7.036133E1,5.6720673E1,1.1225978E3,9.3229004E2,2.5987814E2,3.1422656E2,4.4447266E1,2.4019217E2,0E0,0E0,0E0,3.3047546E2,9.598145E0,1.8066735E3,0E0,3.909372E1,4.0509753E2,4.040381E1,2.3789062E0,1.1586987E2,5.22827E1,0E0,3.5241493E1,8.58313E1,3.1860474E1,0E0,0E0,0E0,2.325853E1,0E0,0E0,1.12519775E2,1.6365942E2,0E0,0E0,0E0,0E0,0E0,0E0,0E0,0E0,0E0,0E0,0E0,0E0,0E0,0E0,0E0,0E0,0E0,0E0,0E0],"parents":[2147483647,0,0,1,1,2,2,3,3,4,4,6,6,7,7,8,8,9,9,10,10,11,11,12,12,13,13,14,14,18,18,19,19,20,20,22,22,23,23,24,24,25,25,26,26,27,27,29,29,30,30,31,31,35,35,38,38,39,39],"right_children":[2,4,6,8,10,-1,12,14,16,18,20,22,24,26,28,-1,-1,-1,30,32,34,-1,36,38,40,42,44,46,-1,48,50,52,-1,-1,-1,54,-1,-1,56,58,-1,-1,-1,-1,-1,-1,-1,-1,-1,-1,-1,-1,-1,-1,-1,-1,-1,-1,-1],"split_conditions":[1E0,1E0,9.999999E-1,7.4436175E5,4.4254125E4,1.2208801E-1,7E0,1.1382074E6,1E0,1.3976385E2,3.3E1,1E0,-4.765317E4,6.064001E4,1.2807352E6,-1.1481091E-1,1.2152555E-1,-1.22759156E-1,3.1640762E4,4.0047926E4,9.9988294E-1,-1.2315633E-1,7.280274E5,1E0,1.3261748E5,9.646681E5,4.4745E2,4.6845348E4,-1.2299722E-1,3.3E1,1.5E1,2.984391E4,-1.22204386E-1,-1.22132435E-1,1.2583648E-1,8.452414E4,-1.17555134E-1,-1.2414368E-1,1E0,3.2306404E4,-1.233866E-1,-1.218611E-1,-9.919806E-2,1.2238035E-1,-1.2061664E-1,-1.7506598E-1,1.420042E-1,-1.3073671E-1,1.2325566E-1,1.11633815E-1,-1.542705E-1,-1.2327011E-1,-7.1093224E-2,2.6925279E-2,1.1908706E-1,-1.20420806E-1,1.3053979E-1,-1.1855564E-1,-4.8885483E-2],"split_indices":[12,8,14,15,5,0,0,1,13,14,15,8,16,15,5,0,0,0,1,1,14,0,5,11,16,1,4,5,0,15,0,1,0,0,0,16,0,0,8,15,0,0,0,0,0,0,0,0,0,0,0,0,0,0,0,0,0,0,0],"split_type":[0,0,0,0,0,0,0,0,0,0,0,0,0,0,0,0,0,0,0,0,0,0,0,0,0,0,0,0,0,0,0,0,0,0,0,0,0,0,0,0,0,0,0,0,0,0,0,0,0,0,0,0,0,0,0,0,0,0,0],"sum_hessian":[4.791671E4,2.0048164E4,2.7868549E4,1.3481001E4,6.567162E3,2.1783207E4,6.0853423E3,1.3323926E4,1.5707501E2,1.3599746E3,5.2071875E3,2.9233353E2,5.793009E3,1.3091558E4,2.3236868E2,1.0132689E1,1.4694232E2,3.122914E2,1.0476832E3,3.996508E3,1.2106796E3,6.929256E1,2.2304097E2,3.2382004E2,5.4691885E3,1.299673E4,9.4826675E1,5.6840187E1,1.755285E2,7.285621E1,9.74827E2,5.6099286E2,3.4355151E3,7.117705E2,4.9890906E2,2.1565862E2,7.382352E0,1.6490094E2,1.5891911E2,2.236657E3,3.2325315E3,1.2922125E4,7.460538E1,2.645208E1,6.8374596E1,4.9185386E0,5.192165E1,6.7697136E1,5.1590743E0,9.633628E2,1.1464246E1,3.8531052E2,1.7568233E2,3.2986187E1,1.8267242E2,1.9676764E1,1.3924236E2,1.8204308E3,4.1622632E2],"tree_param":{"num_deleted":"0","num_feature":"18","num_nodes":"59","size_leaf_vector":"1"}},{"base_weights":[1.0428664E-3,-9.8901623E-1,7.119432E-1,-1.1511794E0,-6.575609E-1,7.895671E-1,-1.1983477E-1,-1.1774756E0,1.0205742E0,4.310731E-1,-9.468376E-1,1.078798E0,4.2604357E-1,-1.1878206E0,-6.8594486E-1,-1.1338923E-1,1.18963E-1,8.9978653E-1,-1.1995988E-1,-1.1737082E0,-1.9185437E-1,1.0888369E0,-7.5206506E-1,-1.5149094E-1,1.0377194E0,-1.1929401E0,-4.8552272E-1,7.689651E-1,-1.2023193E0,-1.0925044E0,1.0456129E0,-1.0331473E0,-1.1963458E-1,1.2068911E0,-1.1941923E-1,1.1007929E0,-1.7826775E-1,1.782959E-1,-1.2216868E-1,9.413344E-1,-1.0497772E0,2.521852E-1,1.0921867E0,-1.1935168E-1,-9.377047E-2,1.1896638E-1,-1.1792252E-1,1.1237597E-1,-1.6151766E-1,-3.7334673E-2,-1.20705366E-1,-1.263214E-1,1.0556876E-1,1.08888544E-1,-1.2784094E-1,-1.2078635E-1,-6.813101E-2,1.2091302E-1,3.8847137E-2,1.1784454E-1,9.771672E-2,-1.2489873E-1,1.1724134E-1,6.1820664E-2,-1.1130722E-1,1.0109065E-1,-7.265689E-2,-1.2065879E-1,-5.038771E-2,9.736433E-2,-1.2066343E-1,6.7190915E-2,1.13662116E-1],"categories":[],"categories_nodes":[],"categories_segments":[],"categories_sizes":[],"default_left":[0,0,0,0,0,0,0,0,0,0,0,0,0,0,0,0,0,0,0,0,0,0,0,0,0,0,0,0,0,0,0,0,0,0,0,0,0,0,0,0,0,0,0,0,0,0,0,0,0,0,0,0,0,0,0,0,0,0,0,0,0,0,0,0,0,0,0,0,0,0,0,0,0],"id":11,"left_children":[1,3,5,7,9,11,-1,13,15,17,19,21,23,25,27,-1,-1,29,-1,31,33,35,37,39,41,43,45,47,49,51,53,55,-1,57,-1,59,61,63,-1,65,67,69,71,-1,-1,-1,-1,-1,-1,-1,-1,-1,-1,-1,-1,-1,-1,-1,-1,-1,-1,-1,-1,-1,-1,-1,-1,-1,-1,-1,-1,-1,-1],"loss_changes":[3.1153432E4,9.935664E2,3.821251E3,7.105176E2,1.9149893E3,2.6026533E3,0E0,6.1589844E1,5.5664413E1,9.77144E2,8.225542E2,2.5422656E2,3.8760796E3,4.263086E1,1.9275009E2,0E0,0E0,2.894911E2,0E0,1.0516113E1,1.5592686E3,2.0793164E2,3.3326157E1,5.54177E3,2.2770996E2,6.3671875E-1,1.0443324E2,5.89067E1,2.9049683E-1,2.6336502E1,9.444757E1,3.1121521E1,0E0,3.8116455E-1,0E0,1.2925781E2,1.8807692E2,1.5624196E1,0E0,2.962771E2,2.6461816E2,3.6618484E2,9.228662E1,0E0,0E0,0E0,0E0,0E0,0E0,0E0,0E0,0E0,0E0,0E0,0E0,0E0,0E0,0E0,0E0,0E0,0E0,0E0,0E0,0E0,0E0,0E0,0E0,0E0,0E0,0E0,0E0,0E0,0E0],"parents":[2147483647,0,0,1,1,2,2,3,3,4,4,5,5,7,7,8,8,9,9,10,10,11,11,12,12,13,13,14,14,17,17,19,19,20,20,21,21,22,22,23,23,24,24,25,25,26,26,27,27,28,28,29,29,30,30,31,31,33,33,35,35,36,36,37,37,39,39,40,40,41,41,42,42],"right_children":[2,4,6,8,10,12,-1,14,16,18,20,22,24,26,28,-1,-1,30,-1,32,34,36,38,40,42,44,46,48,50,52,54,56,-1,58,-1,60,62,64,-1,66,68,70,72,-1,-1,-1,-1,-1,-1,-1,-1,-1,-1,-1,-1,-1,-1,-1,-1,-1,-1,-1,-1,-1,-1,-1,-1,-1,-1,-1,-1,-1,-1],"split_conditions":[1E0,1E0,1E0,7.4436175E5,4.4254125E4,1.3633912E5,-1.1983477E-1,1.0298132E6,1E0,4.4745E2,3.3E1,1.27720695E5,1.51188E5,6.064001E4,1.2807352E6,-1.1338923E-1,1.18963E-1,3.072645E4,-1.1995988E-1,4.0047926E4,4.4745E2,1.6E1,2.3283875E5,1.1222552E1,1E0,9.646681E5,4.4745E2,1.490162E5,1.3160706E6,1.113E4,1.5741722E5,1.2226099E6,-1.1963458E-1,4.7060075E6,-1.1941923E-1,9E0,1.2181194E6,1.2E1,-1.2216868E-1,1.5E1,6.5406E4,1.2735043E2,2.1445238E5,-1.1935168E-1,-9.377047E-2,1.1896638E-1,-1.1792252E-1,1.1237597E-1,-1.6151766E-1,-3.7334673E-2,-1.20705366E-1,-1.263214E-1,1.0556876E-1,1.08888544E-1,-1.2784094E-1,-1.2078635E-1,-6.813101E-2,1.2091302E-1,3.8847137E-2,1.1784454E-1,9.771672E-2,-1.2489873E-1,1.1724134E-1,6.1820664E-2,-1.1130722E-1,1.0109065E-1,-7.265689E-2,-1.2065879E-1,-5.038771E-2,9.736433E-2,-1.2066343E-1,6.7190915E-2,1.13662116E-1],"split_indices":[12,8,10,15,5,6,0,1,13,4,15,5,3,15,5,0,0,1,0,1,4,0,17,2,8,1,4,17,5,3,17,5,0,5,0,0,1,0,0,0,3,5,3,0,0,0,0,0,0,0,0,0,0,0,0,0,0,0,0,0,0,0,0,0,0,0,0,0,0,0,0,0,0],"split_type":[0,0,0,0,0,0,0,0,0,0,0,0,0,0,0,0,0,0,0,0,0,0,0,0,0,0,0,0,0,0,0,0,0,0,0,0,0,0,0,0,0,0,0,0,0,0,0,0,0,0,0,0,0,0,0,0,0,0,0,0,0,0,0,0,0,0,0,0,0,0,0,0,0],"sum_hessian":[4.426051E4,1.849811E4,2.57624E4,1.2419462E4,6.078648E3,2.4756998E4,1.00540393E3,1.2271336E4,1.4812622E2,1.2760403E3,4.802608E3,1.378625E4,1.0970747E4,1.2017003E4,2.5433221E2,1.0362182E1,1.3776404E2,9.9149677E2,2.8454346E2,3.6924739E3,1.110134E3,1.3711474E4,7.477703E1,5.643241E3,5.3275054E3,1.1929343E4,8.7660225E1,6.649374E1,1.8783849E2,6.718047E1,9.243163E2,5.1866034E2,3.1738135E3,4.6334286E2,6.4679114E2,1.3583437E4,1.2803644E2,2.5291918E1,4.9485115E1,2.545916E3,3.0973254E3,3.4581046E2,4.981695E3,1.1898784E4,3.0558859E1,2.5460945E1,6.2199284E1,5.8340485E1,8.153249E0,1.5201912E0,1.863183E2,6.2616512E1,4.56396E0,9.079422E2,1.6374113E1,3.4493756E2,1.7372278E2,4.6160263E2,1.7402421E0,8.337746E3,5.245691E3,7.1461975E1,5.6574455E1,1.925417E1,6.037748E0,2.4443506E3,1.015655E2,2.4052131E3,6.921122E2,2.3160364E2,1.1420682E2,4.7787695E2,4.5038184E3],"tree_param":{"num_deleted":"0","num_feature":"18","num_nodes":"73","size_leaf_vector":"1"}},{"base_weights":[-9.2056603E-4,-9.701943E-1,6.8609697E-1,-1.1296808E0,-6.445523E-1,1.1756458E-1,-9.941778E-1,-1.154549E0,1.0109564E0,4.1754982E-1,-9.303397E-1,4.2225656E-1,-1.064804E0,-1.1673036E0,-6.6140693E-1,1.16609074E-1,-1.09244585E-1,-1.1780138E-1,8.685747E-1,-9.8677033E-1,1.1606981E-1,-1.1898531E-1,9.2782855E-1,-1.1383687E0,-7.318271E-1,-1.1702641E-1,-1.0181521E0,8.645119E-1,-1.092548E0,-9.81401E-1,1.0149498E0,-6.5389174E-1,-1.1563277E0,1.0279187E0,-5.9148407E-1,-8.845567E-1,-1.20681696E-1,-1.1936569E-1,1.4502032E0,3.1173024E-2,-1.168275E-1,1.11296974E-1,-1.2130739E-1,-3.0393252E-2,-1.1830473E-1,-1.1068974E-2,-1.24164045E-1,1.0481473E-1,-1.5385376E-1,-1.1740484E-1,-2.836121E-2,4.1314386E-2,-1.1740714E-1,-3.2720312E-2,1.09307386E-1,-1.3465653E-1,9.475302E-2,-9.6236624E-2,1.4133993E-1,1.8872282E-1,1.2526856E-1],"categories":[],"categories_nodes":[],"categories_segments":[],"categories_sizes":[],"default_left":[0,0,0,0,0,0,0,0,0,0,0,0,0,0,0,0,0,0,0,0,0,0,0,0,0,0,0,0,0,0,0,0,0,0,0,0,0,0,0,0,0,0,0,0,0,0,0,0,0,0,0,0,0,0,0,0,0,0,0,0,0],"id":12,"left_children":[1,3,5,7,9,-1,11,13,15,17,19,21,23,25,27,-1,-1,-1,29,31,-1,-1,33,35,37,-1,39,41,43,45,47,49,51,53,55,57,-1,-1,59,-1,-1,-1,-1,-1,-1,-1,-1,-1,-1,-1,-1,-1,-1,-1,-1,-1,-1,-1,-1,-1,-1],"loss_changes":[2.7432586E4,8.867295E2,1.9831895E4,6.116963E2,1.7062354E3,0E0,5.446255E2,7.053906E1,4.4424683E1,8.5901965E2,5.2372144E2,2.1225519E2,1.2609326E2,3.6875E0,1.9051172E2,0E0,0E0,0E0,2.5285449E2,2.4266895E2,0E0,0E0,3.0684296E1,7.2632324E1,9.494313E2,0E0,4.483908E1,3.4405487E1,1.5706268E1,1.5430336E1,7.471649E1,2.8043573E2,8.002173E1,1.677333E1,1.621911E1,1.6314014E2,0E0,0E0,1.1855133E1,0E0,0E0,0E0,0E0,0E0,0E0,0E0,0E0,0E0,0E0,0E0,0E0,0E0,0E0,0E0,0E0,0E0,0E0,0E0,0E0,0E0,0E0],"parents":[2147483647,0,0,1,1,2,2,3,3,4,4,6,6,7,7,8,8,9,9,10,10,11,11,12,12,13,13,14,14,18,18,19,19,22,22,23,23,24,24,26,26,27,27,28,28,29,29,30,30,31,31,32,32,33,33,34,34,35,35,38,38],"right_children":[2,4,6,8,10,-1,12,14,16,18,20,22,24,26,28,-1,-1,-1,30,32,-1,-1,34,36,38,-1,40,42,44,46,48,50,52,54,56,58,-1,-1,60,-1,-1,-1,-1,-1,-1,-1,-1,-1,-1,-1,-1,-1,-1,-1,-1,-1,-1,-1,-1,-1,-1],"split_conditions":[1E0,1E0,9.999999E-1,1.4839493E1,4.4254125E4,1.1756458E-1,7E0,9.1386075E5,6.051526E2,1.3976385E2,1E0,1E0,1E0,5.7623456E5,1.0654156E6,1.16609074E-1,-1.09244585E-1,-1.1780138E-1,3.414778E4,4.625534E4,1.1606981E-1,-1.1898531E-1,4.0669947E5,1.4551915E-11,1E0,-1.1702641E-1,1.2735043E2,1.1E1,1.3160706E6,9E0,1.5E1,1.3986157E0,6.654875E4,8.423697E4,5.7623456E5,8.453382E-12,-1.20681696E-1,-1.1936569E-1,1.0435057E5,3.1173024E-2,-1.168275E-1,1.11296974E-1,-1.2130739E-1,-3.0393252E-2,-1.1830473E-1,-1.1068974E-2,-1.24164045E-1,1.0481473E-1,-1.5385376E-1,-1.1740484E-1,-2.836121E-2,4.1314386E-2,-1.1740714E-1,-3.2720312E-2,1.09307386E-1,-1.3465653E-1,9.475302E-2,-9.6236624E-2,1.4133993E-1,1.8872282E-1,1.2526856E-1],"split_indices":[12,8,14,2,5,0,0,1,6,14,11,8,11,1,5,0,0,0,1,14,0,0,5,17,8,0,5,0,5,0,0,14,5,6,1,17,0,0,17,0,0,0,0,0,0,0,0,0,0,0,0,0,0,0,0,0,0,0,0,0,0],"split_type":[0,0,0,0,0,0,0,0,0,0,0,0,0,0,0,0,0,0,0,0,0,0,0,0,0,0,0,0,0,0,0,0,0,0,0,0,0,0,0,0,0,0,0,0,0,0,0,0,0,0,0,0,0,0,0,0,0,0,0,0,0],"sum_hessian":[4.119376E4,1.7086701E4,2.410706E4,1.1467774E4,5.6189263E3,1.8668334E4,5.438727E3,1.1336536E4,1.312387E2,1.1912598E3,4.4276665E3,2.5806937E2,5.1806577E3,1.104939E4,2.8714584E2,1.2263918E2,8.599513E0,2.6217325E2,9.290865E2,4.3118315E3,1.1583486E2,6.128795E1,1.9678142E2,4.241224E3,9.394338E2,1.0827621E4,2.2176903E2,6.3036903E1,2.2410893E2,6.770357E1,8.6138293E2,1.4567555E3,2.8550762E3,1.8492241E2,1.1859001E1,9.037946E2,3.3374294E3,7.7570715E2,1.637266E2,2.2385736E1,1.993833E2,5.6718277E1,6.318626E0,2.3519262E1,2.0058966E2,1.590703E1,5.179654E1,8.5090985E2,1.047305E1,6.048755E2,8.5187994E2,3.1668224E1,2.823408E3,8.298805E0,1.7662361E2,8.039604E0,3.8193963E0,8.747563E2,2.9038317E1,4.8301216E1,1.1542537E2],"tree_param":{"num_deleted":"0","num_feature":"18","num_nodes":"61","size_leaf_vector":"1"}},{"base_weights":[2.4627725E-4,-9.478424E-1,6.7463416E-1,-1.1095008E0,-6.23339E-1,1.1561531E-1,-9.70376E-1,-1.1353505E0,9.811011E-1,-8.70273E-1,-2.3608807E-2,3.8599196E-1,-1.0384014E0,-1.1476029E0,-6.3370305E-1,-1.0879838E-1,1.1474462E-1,-1.3737881E-1,-1.1115172E0,-1.1567717E-1,1.2028324E-1,-1.1676438E-1,8.704546E-1,-1.0590368E-1,-1.088038E0,-1.1527752E-1,-4.5409033E-1,1.3904776E-1,-1.1615459E-1,-1.2074888E-1,8.6498207E-1,-1.1213138E0,2.9459077E-1,6.469149E-2,1.0312951E0,7.496641E-1,-1.1621147E-1,-9.716821E-1,-1.1713491E-1,-1.1353423E-1,1.153324E-1,8.4562264E-2,-1.2612015E-1,9.746953E-2,-1.4124918E-1,-9.202394E-2,-1.1500197E-1,9.8615915E-2,-1.0839534E-1,1.1003504E-1,-2.1192575E-1,1.0631015E-1,-9.812222E-2,9.324486E-2,-1.1146732E-1,-1.12526335E-1,-2.7269775E-2],"categories":[],"categories_nodes":[],"categories_segments":[],"categories_sizes":[],"default_left":[0,0,0,0,0,0,0,0,0,0,0,0,0,0,0,0,0,0,0,0,0,0,0,0,0,0,0,0,0,0,0,0,0,0,0,0,0,0,0,0,0,0,0,0,0,0,0,0,0,0,0,0,0,0,0,0,0],"id":13,"left_children":[1,3,5,7,9,-1,11,13,15,17,19,21,23,25,27,-1,-1,29,31,-1,-1,-1,33,35,37,-1,39,41,-1,-1,43,45,47,49,51,53,-1,55,-1,-1,-1,-1,-1,-1,-1,-1,-1,-1,-1,-1,-1,-1,-1,-1,-1,-1,-1],"loss_changes":[2.4265512E4,8.268281E2,1.7567535E4,5.700674E2,7.7712964E2,0E0,4.6378223E2,6.3194336E1,4.56903E1,6.5706274E2,2.1298655E3,1.8209137E2,2.2125098E2,3.5887695E1,1.02211044E2,0E0,0E0,9.8968E2,3.8851562E1,0E0,0E0,0E0,2.3774612E1,2.2029552E2,4.2879395E1,0E0,8.540357E1,1.02410164E2,0E0,0E0,1.20437195E2,1.4972656E1,2.0270119E1,7.398142E1,1.0854996E1,4.696129E1,0E0,2.037135E2,0E0,0E0,0E0,0E0,0E0,0E0,0E0,0E0,0E0,0E0,0E0,0E0,0E0,0E0,0E0,0E0,0E0,0E0,0E0],"parents":[2147483647,0,0,1,1,2,2,3,3,4,4,6,6,7,7,8,8,9,9,10,10,11,11,12,12,13,13,14,14,17,17,18,18,22,22,23,23,24,24,26,26,27,27,30,30,31,31,32,32,33,33,34,34,35,35,37,37],"right_children":[2,4,6,8,10,-1,12,14,16,18,20,22,24,26,28,-1,-1,30,32,-1,-1,-1,34,36,38,-1,40,42,-1,-1,44,46,48,50,52,54,-1,56,-1,-1,-1,-1,-1,-1,-1,-1,-1,-1,-1,-1,-1,-1,-1,-1,-1,-1,-1],"split_conditions":[1E0,1E0,9.999999E-1,7.4436175E5,3.3E1,1.1561531E-1,7E0,9.646681E5,1E0,2.8006794E5,9.9988294E-1,1E0,-6.224711E4,6.2482566E4,3.2602155E6,-1.0879838E-1,1.1474462E-1,9.404704E4,7.5549144E5,-1.1567717E-1,1.2028324E-1,-1.1676438E-1,7.597346E4,1.695773E0,1.3233002E5,-1.1527752E-1,9.980515E-1,1.1E1,-1.1615459E-1,-1.2074888E-1,8.87896E3,4.0047926E4,9E0,1.2725545E0,3.1132748E1,8.0065E4,-1.1621147E-1,3.1768E4,-1.1713491E-1,-1.1353423E-1,1.153324E-1,8.4562264E-2,-1.2612015E-1,9.746953E-2,-1.4124918E-1,-9.202394E-2,-1.1500197E-1,9.8615915E-2,-1.0839534E-1,1.1003504E-1,-2.1192575E-1,1.0631015E-1,-9.812222E-2,9.324486E-2,-1.1146732E-1,-1.12526335E-1,-2.7269775E-2],"split_indices":[12,8,14,15,15,0,0,1,13,6,14,8,16,15,6,0,0,16,1,0,0,0,16,14,1,0,14,0,0,0,17,1,0,14,14,15,0,3,0,0,0,0,0,0,0,0,0,0,0,0,0,0,0,0,0,0,0],"split_type":[0,0,0,0,0,0,0,0,0,0,0,0,0,0,0,0,0,0,0,0,0,0,0,0,0,0,0,0,0,0,0,0,0,0,0,0,0,0,0,0,0,0,0,0,0,0,0,0,0,0,0,0,0,0,0,0,0],"sum_hessian":[3.7949652E4,1.5773732E4,2.2175918E4,1.0527043E4,5.2466895E3,1.7154762E4,5.021156E3,1.039892E4,1.2812317E2,3.7161458E3,1.5305436E3,2.3957419E2,4.7815815E3,1.0149731E4,2.4918828E2,9.121745E0,1.1900143E2,9.2068756E2,2.7954583E3,7.955536E2,7.3499005E2,5.6612366E1,1.8296182E2,2.418173E2,4.5397646E3,1.00739375E4,7.5794525E1,1.014314E2,1.4775688E2,4.4519617E2,4.754914E2,2.7763176E3,1.9140574E1,3.067772E1,1.522841E2,1.3375848E2,1.08058815E2,1.8995012E3,2.6402632E3,5.3439545E1,2.2354982E1,6.7677155E1,3.375424E1,4.5418393E2,2.130747E1,3.50968E2,2.4253496E3,1.2935775E1,6.2047977E0,2.1146109E1,9.531612E0,1.5037923E2,1.9048815E0,1.2227061E2,1.148788E1,1.5568248E3,3.4267642E2],"tree_param":{"num_deleted":"0","num_feature":"18","num_nodes":"57","size_leaf_vector":"1"}},{"base_weights":[2.515189E-4,-9.3107307E-1,6.633398E-1,-1.0930489E0,-6.0748076E-1,7.3552954E-1,-1.1390163E-1,-1.1184508E0,9.6954983E-1,3.9912143E-1,-8.795259E-1,1.030921E0,4.2665645E-1,-1.13628305E-1,-7.8215015E-1,-1.0595607E-1,1.1299844E-1,-8.0757815E-1,6.866944E-1,-1.1111467E0,-1.3051853E-1,1.0524215E0,-5.0283545E-1,-3.726459E-2,1.0353212E0,-1.8357888E-1,-1.1302731E0,6.394478E-2,-9.995798E-1,9.6960044E-1,-5.7425094E-1,-9.561059E-1,-1.13873184E-1,8.496488E-1,-5.4979414E-1,8.357516E-1,1.1266127E0,9.576802E-1,-1.15501955E-1,6.244072E-1,-9.10319E-1,6.675897E-1,1.0726392E0,5.8027275E-2,-1.1423899E-1,-7.440413E-2,-1.14000954E-1,-1.15783714E-1,7.606985E-2,-1.1326521E-1,-1.5630977E-2,1.0135404E-1,-1.7014009E-1,-1.1302268E-1,1.13106385E-1,-1.0880569E-1,-1.923032E-2,-1.0818834E-2,1.0268098E-1,-8.495704E-2,1.1229863E-1,1.0436239E-1,-8.273283E-2,-8.6345464E-2,1.1274125E-1,-8.203647E-2,1.0726803E-1,1.0904845E-1,2.472648E-2,-1.1426782E-1,2.0553462E-2,-1.1215954E-1,8.102509E-2,1.0782111E-1,-1.06403925E-1],"categories":[],"categories_nodes":[],"categories_segments":[],"categories_sizes":[],"default_left":[0,0,0,0,0,0,0,0,0,0,0,0,0,0,0,0,0,0,0,0,0,0,0,0,0,0,0,0,0,0,0,0,0,0,0,0,0,0,0,0,0,0,0,0,0,0,0,0,0,0,0,0,0,0,0,0,0,0,0,0,0,0,0,0,0,0,0,0,0,0,0,0,0,0,0],"id":14,"left_children":[1,3,5,7,9,11,-1,13,15,17,19,21,23,-1,25,-1,-1,27,29,31,33,35,37,39,41,43,45,47,49,51,53,55,-1,57,59,61,63,65,-1,67,69,71,73,-1,-1,-1,-1,-1,-1,-1,-1,-1,-1,-1,-1,-1,-1,-1,-1,-1,-1,-1,-1,-1,-1,-1,-1,-1,-1,-1,-1,-1,-1,-1,-1],"loss_changes":[2.1599844E4,7.6175977E2,2.65908E3,5.0891992E2,1.3297311E3,1.791876E3,0E0,5.6532227E1,3.975821E1,3.5920953E2,6.6292065E2,3.3163184E2,2.712145E3,0E0,1.0093088E2,0E0,0E0,3.34245E1,2.9848984E2,1.1395264E1,3.7192575E2,1.5823535E2,1.339659E2,3.149704E3,5.6293945E1,1.3225446E2,3.0511475E-1,3.2320282E1,1.8162811E1,8.182593E1,1.4697711E2,4.485797E1,0E0,4.613086E1,3.1872064E2,8.753828E2,1.2708984E1,9.795979E0,0E0,5.449409E2,6.097175E2,9.927934E1,4.6029297E1,0E0,0E0,0E0,0E0,0E0,0E0,0E0,0E0,0E0,0E0,0E0,0E0,0E0,0E0,0E0,0E0,0E0,0E0,0E0,0E0,0E0,0E0,0E0,0E0,0E0,0E0,0E0,0E0,0E0,0E0,0E0,0E0],"parents":[2147483647,0,0,1,1,2,2,3,3,4,4,5,5,7,7,8,8,9,9,10,10,11,11,12,12,14,14,17,17,18,18,19,19,20,20,21,21,22,22,23,23,24,24,25,25,26,26,27,27,28,28,29,29,30,30,31,31,33,33,34,34,35,35,36,36,37,37,39,39,40,40,41,41,42,42],"right_children":[2,4,6,8,10,12,-1,14,16,18,20,22,24,-1,26,-1,-1,28,30,32,34,36,38,40,42,44,46,48,50,52,54,56,-1,58,60,62,64,66,-1,68,70,72,74,-1,-1,-1,-1,-1,-1,-1,-1,-1,-1,-1,-1,-1,-1,-1,-1,-1,-1,-1,-1,-1,-1,-1,-1,-1,-1,-1,-1,-1,-1,-1,-1],"split_conditions":[1E0,1E0,1E0,7.4436175E5,4.4254125E4,3.3539957E4,-1.1390163E-1,9.5029106E5,1E0,6.397446E4,3.3E1,5.3749744E5,2.111566E5,-1.13628305E-1,1.2226099E6,-1.0595607E-1,1.1299844E-1,9E0,8.1811E4,4.0047926E4,4.4651E4,1E0,8.178493E0,1.1797595E1,1.1081E2,8.26239E5,1.3160706E6,1.6063752E4,5.150996E4,1.2875413E5,1E0,3.5811125E4,-1.13873184E-1,6.641889E5,1E0,1.04633665E1,5.502281E-11,1E0,-1.15501955E-1,1.0420208E1,1.349008E5,1E0,1.6E1,5.8027275E-2,-1.1423899E-1,-7.440413E-2,-1.14000954E-1,-1.15783714E-1,7.606985E-2,-1.1326521E-1,-1.5630977E-2,1.0135404E-1,-1.7014009E-1,-1.1302268E-1,1.13106385E-1,-1.0880569E-1,-1.923032E-2,-1.0818834E-2,1.0268098E-1,-8.495704E-2,1.1229863E-1,1.0436239E-1,-8.273283E-2,-8.6345464E-2,1.1274125E-1,-8.203647E-2,1.0726803E-1,1.0904845E-1,2.472648E-2,-1.1426782E-1,2.0553462E-2,-1.1215954E-1,8.102509E-2,1.0782111E-1,-1.06403925E-1],"split_indices":[12,8,10,15,5,16,0,16,13,1,15,5,3,0,5,0,0,0,3,1,3,11,2,2,17,17,5,15,1,17,11,1,0,5,11,2,17,8,0,2,3,8,0,0,0,0,0,0,0,0,0,0,0,0,0,0,0,0,0,0,0,0,0,0,0,0,0,0,0,0,0,0,0,0,0],"split_type":[0,0,0,0,0,0,0,0,0,0,0,0,0,0,0,0,0,0,0,0,0,0,0,0,0,0,0,0,0,0,0,0,0,0,0,0,0,0,0,0,0,0,0,0,0,0,0,0,0,0,0,0,0,0,0,0,0,0,0,0,0,0,0,0,0,0,0,0,0,0,0,0,0,0,0],"sum_hessian":[3.497465E4,1.4545174E4,2.0429477E4,9.691609E3,4.8535645E3,1.9643295E4,7.8618085E2,9.574156E3,1.1745244E2,1.0325457E3,3.821019E3,1.0039581E4,9.603714E3,9.089793E3,4.8436395E2,8.195447E0,1.09256996E2,1.9836554E2,8.3418005E2,2.9181392E3,9.0287976E2,9.9011E3,1.3848164E2,5.450393E3,4.1533213E3,1.786743E2,3.0568967E2,3.5932003E1,1.6243355E2,6.815078E2,1.5267224E2,4.4616376E2,2.4719756E3,2.7019687E2,6.326829E2,2.528645E3,7.372454E3,4.2604267E1,9.587738E1,3.1007083E3,2.3496846E3,3.8439325E2,3.768928E3,9.966747E1,7.900683E1,9.420184E0,2.9626947E2,1.2809078E1,2.3122927E1,1.3999799E2,2.2435556E1,6.710885E2,1.0419346E1,1.1538955E2,3.7282684E1,3.8007858E2,6.608519E1,4.223559E1,2.2796127E2,5.369492E2,9.573369E1,2.2480308E3,2.806143E2,2.5284798E0,7.369926E3,2.215546E0,4.038872E1,1.3859912E3,1.714717E3,1.9447058E3,4.0497882E2,2.7879574E1,3.5651367E2,3.7596194E3,9.308741E0],"tree_param":{"num_deleted":"0","num_feature":"18","num_nodes":"75","size_leaf_vector":"1"}},{"base_weights":[1.3422844E-4,-9.159319E-1,6.4542204E-1,-1.0782504E0,-5.953197E-1,7.145095E-1,-1.1236646E-1,-1.1022558E0,9.727401E-1,3.7848642E-1,-8.6103487E-1,1.046447E0,4.344832E-1,-1.1158916E0,-5.747959E-1,1.10857844E-1,-1.00490265E-1,7.849932E-1,-1.1237794E-1,-1.0942607E0,-1.2689658E-1,-1.147065E0,1.0578742E0,6.856762E-2,1.0063505E0,-1.1215382E-1,-3.7730408E-1,7.9288906E-1,-1.0236325E0,-9.6838003E-1,9.1408753E-1,-9.322076E-1,-1.1237239E-1,1.1430672E0,-1.1255155E-1,-1.17016576E-1,-2.8907249E-2,8.51292E-1,1.111896E0,4.733136E-1,-1.1210982E0,8.393415E-1,1.1117038E0,1.1238139E-1,-1.1006462E-1,9.8409794E-2,-1.4594394E-1,-2.9586125E-2,-1.1274015E-1,-1.16077855E-1,9.656073E-2,9.5705636E-2,-1.5680973E-1,-1.1356457E-1,-5.0425183E-2,-6.497161E-3,1.148227E-1,9.8941565E-2,-1.2179444E-1,1.1139049E-1,-7.9038225E-2,9.314912E-2,1.0045684E-2,-1.1316692E-1,1.5325593E-2,9.1306575E-2,-1.0287573E-1,1.1131509E-1,-5.20917E-2],"categories":[],"categories_nodes":[],"categories_segments":[],"categories_sizes":[],"default_left":[0,0,0,0,0,0,0,0,0,0,0,0,0,0,0,0,0,0,0,0,0,0,0,0,0,0,0,0,0,0,0,0,0,0,0,0,0,0,0,0,0,0,0,0,0,0,0,0,0,0,0,0,0,0,0,0,0,0,0,0,0,0,0,0,0,0,0,0,0],"id":15,"left_children":[1,3,5,7,9,11,-1,13,15,17,19,21,23,25,27,-1,-1,29,-1,31,33,35,37,39,41,-1,43,45,47,49,51,53,-1,55,-1,-1,-1,57,59,61,63,65,67,-1,-1,-1,-1,-1,-1,-1,-1,-1,-1,-1,-1,-1,-1,-1,-1,-1,-1,-1,-1,-1,-1,-1,-1,-1,-1],"loss_changes":[1.9126123E4,6.9525977E2,2.320976E3,4.380957E2,1.1638809E3,1.6978066E3,0E0,6.2464844E1,2.8843063E1,5.8998035E2,6.0479565E2,2.1075098E2,2.074037E3,3.5243164E1,1.378104E2,0E0,0E0,1.7286768E2,0E0,1.1753662E1,1.0829894E3,5.299301E-1,9.186914E1,2.9114646E3,6.711426E1,0E0,7.332582E1,2.542706E1,1.2389069E1,2.0689754E1,7.70365E1,3.584909E1,0E0,2.4179993E0,0E0,0E0,0E0,4.9517017E2,2.6060547E1,7.7061957E2,2.0850708E1,2.0753418E2,6.175293E0,0E0,0E0,0E0,0E0,0E0,0E0,0E0,0E0,0E0,0E0,0E0,0E0,0E0,0E0,0E0,0E0,0E0,0E0,0E0,0E0,0E0,0E0,0E0,0E0,0E0,0E0],"parents":[2147483647,0,0,1,1,2,2,3,3,4,4,5,5,7,7,8,8,9,9,10,10,11,11,12,12,13,13,14,14,17,17,19,19,20,20,21,21,22,22,23,23,24,24,26,26,27,27,28,28,29,29,30,30,31,31,33,33,37,37,38,38,39,39,40,40,41,41,42,42],"right_children":[2,4,6,8,10,12,-1,14,16,18,20,22,24,26,28,-1,-1,30,-1,32,34,36,38,40,42,-1,44,46,48,50,52,54,-1,56,-1,-1,-1,58,60,62,64,66,68,-1,-1,-1,-1,-1,-1,-1,-1,-1,-1,-1,-1,-1,-1,-1,-1,-1,-1,-1,-1,-1,-1,-1,-1,-1,-1],"split_conditions":[1E0,1E0,1E0,7.4436175E5,4.4254125E4,4.0534547E4,-1.1236646E-1,9.646681E5,6.051526E2,4.4745E2,3.3E1,-7.853193E4,2.111566E5,6.064001E4,1.0654156E6,1.10857844E-1,-1.00490265E-1,3.1640762E4,-1.1237794E-1,4.0047926E4,4.4745E2,3.403864E4,1E0,2.0952081E5,6.5812375E5,-1.1215382E-1,4.4745E2,1.8581344E6,1.3160706E6,1.874339E4,1.5E1,2.984391E4,-1.1237239E-1,1.2868508E3,-1.1255155E-1,-1.17016576E-1,-2.8907249E-2,1.2E1,3.1075E4,4.787029E4,2.0756986E5,6.545161E5,1.1698173E7,1.1238139E-1,-1.1006462E-1,9.8409794E-2,-1.4594394E-1,-2.9586125E-2,-1.1274015E-1,-1.16077855E-1,9.656073E-2,9.5705636E-2,-1.5680973E-1,-1.1356457E-1,-5.0425183E-2,-6.497161E-3,1.148227E-1,9.8941565E-2,-1.2179444E-1,1.1139049E-1,-7.9038225E-2,9.314912E-2,1.0045684E-2,-1.1316692E-1,1.5325593E-2,9.1306575E-2,-1.0287573E-1,1.1131509E-1,-5.20917E-2],"split_indices":[12,8,10,15,5,6,0,1,6,4,15,16,3,15,5,0,0,1,0,1,4,6,11,1,3,0,4,16,5,3,0,1,0,16,0,0,0,0,5,1,15,1,6,0,0,0,0,0,0,0,0,0,0,0,0,0,0,0,0,0,0,0,0,0,0,0,0,0,0],"split_type":[0,0,0,0,0,0,0,0,0,0,0,0,0,0,0,0,0,0,0,0,0,0,0,0,0,0,0,0,0,0,0,0,0,0,0,0,0,0,0,0,0,0,0,0,0,0,0,0,0,0,0,0,0,0,0,0,0,0,0,0,0,0,0,0,0,0,0,0,0],"sum_hessian":[3.2353396E4,1.3371076E4,1.898232E4,8.875335E3,4.495741E3,1.8269447E4,7.1287335E2,8.773114E3,1.0222031E2,9.6365753E2,3.5320835E3,8.358597E3,9.910851E3,8.550941E3,2.2217334E2,9.606158E1,6.1587334E0,7.588055E2,2.0485207E2,2.6801467E3,8.519368E2,4.2803448E1,8.315793E3,6.044397E3,3.8664536E3,8.48555E3,6.539109E1,5.4706467E1,1.6746687E2,5.1590927E1,7.0721454E2,4.1734006E2,2.2628066E3,3.749547E2,4.7698215E2,4.1326916E1,1.4765328E0,1.7272966E3,6.588496E3,4.510459E3,1.5339381E3,1.4990627E3,2.3673909E3,2.1083614E1,4.4307476E1,5.0944656E1,3.7618132E0,2.137898E1,1.4608789E2,4.728653E1,4.304397E0,6.957843E2,1.1430205E1,2.817502E2,1.3558986E2,1.5453794E0,3.7340933E2,1.6197018E3,1.07594864E2,6.58196E3,6.5359855E0,2.023017E3,2.487442E3,1.5214296E3,1.2508475E1,1.4426404E3,5.642234E1,2.3656123E3,1.7787156E0],"tree_param":{"num_deleted":"0","num_feature":"18","num_nodes":"69","size_leaf_vector":"1"}},{"base_weights":[-1.2370636E-3,-9.015049E-1,6.235827E-1,-1.0771338E0,-6.282146E-1,1.1142992E-1,-9.367367E-1,-1.1040838E0,1.0996927E-1,2.1318856E-1,-8.3408314E-1,1.6800965E-1,-1.0157852E0,-8.277197E-1,-1.109932E-1,-1.0891786E0,5.9111786E-1,-1.0379509E0,-5.7458836E-3,-1.0241793E0,6.268546E-1,-2.4445169E-1,-1.0672331E0,-1.1152474E-1,9.291026E-1,-1.1098099E-1,-3.5844934E-1,-3.079062E-1,8.9359796E-1,-3.737593E-1,-1.0693475E0,-1.1115853E-1,1.1462925E-1,1.4094989E-2,-1.1773952E-1,1.2196332E0,1.6731182E-2,-1.16150215E-1,8.623687E-1,-8.852739E-1,-1.1223481E0,-6.489021E-2,1.04784966E-1,-9.0692826E-2,8.170629E-2,-1.2288678E-1,1.1875053E-1,9.603533E-2,-1.505464E-1,4.8441086E-2,-1.09971024E-1,-1.1022667E-1,-5.0207775E-2,1.0093367E-1,-1.0979207E-1,-6.588428E-2,1.2867276E-1,9.807889E-2,-1.3653837E-1,1.16813816E-1,-1.122697E-1,-9.538492E-2,1.2762938E-1,-1.15493275E-1,-9.522576E-2],"categories":[],"categories_nodes":[],"categories_segments":[],"categories_sizes":[],"default_left":[0,0,0,0,0,0,0,0,0,0,0,0,0,0,0,0,0,0,0,0,0,0,0,0,0,0,0,0,0,0,0,0,0,0,0,0,0,0,0,0,0,0,0,0,0,0,0,0,0,0,0,0,0,0,0,0,0,0,0,0,0,0,0,0,0],"id":16,"left_children":[1,3,5,7,9,-1,11,13,-1,15,17,19,21,23,-1,25,27,29,31,33,35,37,39,-1,41,-1,43,45,47,49,51,-1,-1,53,-1,55,57,-1,59,61,63,-1,-1,-1,-1,-1,-1,-1,-1,-1,-1,-1,-1,-1,-1,-1,-1,-1,-1,-1,-1,-1,-1,-1,-1],"loss_changes":[1.6830748E4,5.877031E2,1.352482E4,4.3893164E2,8.313213E2,0E0,3.6925317E2,1.0994141E1,0E0,4.6529083E2,6.51031E2,1.5549289E2,1.5626196E2,8.017487E1,0E0,2.8085327E0,1.9942467E2,6.411597E1,9.7259924E2,1.2591919E1,7.413076E1,2.526534E2,3.6085938E1,0E0,4.9111004E0,0E0,5.4585695E0,2.5639658E2,8.924448E1,8.848673E1,5.460205E1,0E0,0E0,1.34519E1,0E0,1.3952484E1,1.3731248E2,0E0,6.984795E1,1.2933234E2,1.4607666E1,0E0,0E0,0E0,0E0,0E0,0E0,0E0,0E0,0E0,0E0,0E0,0E0,0E0,0E0,0E0,0E0,0E0,0E0,0E0,0E0,0E0,0E0,0E0,0E0],"parents":[2147483647,0,0,1,1,2,2,3,3,4,4,6,6,7,7,9,9,10,10,11,11,12,12,13,13,15,15,16,16,17,17,18,18,19,19,20,20,21,21,22,22,24,24,26,26,27,27,28,28,29,29,30,30,33,33,35,35,36,36,38,38,39,39,40,40],"right_children":[2,4,6,8,10,-1,12,14,-1,16,18,20,22,24,-1,26,28,30,32,34,36,38,40,-1,42,-1,44,46,48,50,52,-1,-1,54,-1,56,58,-1,60,62,64,-1,-1,-1,-1,-1,-1,-1,-1,-1,-1,-1,-1,-1,-1,-1,-1,-1,-1,-1,-1,-1,-1,-1,-1],"split_conditions":[1E0,2.829667E4,9.999999E-1,1.5913628E6,2.8006794E5,1.1142992E-1,8E0,2.1827873E-11,1.0996927E-1,1.02408E3,3.3E1,8.423697E4,-3.22356E4,2.353732E6,-1.109932E-1,1.3976385E2,8.540461E4,5.161452E4,9.9988294E-1,-6.224711E4,1.3633912E5,1E0,1.4551915E-11,-1.1152474E-1,3.3E1,-1.1098099E-1,2.2907036E3,9.8E1,8.87896E3,4.0047926E4,1.0847674E6,-1.1115853E-1,1.1462925E-1,1.1643447E0,-1.1773952E-1,8.452414E4,1.3986157E0,-1.16150215E-1,1.695773E0,8.453382E-12,1E0,-6.489021E-2,1.04784966E-1,-9.0692826E-2,8.170629E-2,-1.2288678E-1,1.1875053E-1,9.603533E-2,-1.505464E-1,4.8441086E-2,-1.09971024E-1,-1.1022667E-1,-5.0207775E-2,1.0093367E-1,-1.0979207E-1,-6.588428E-2,1.2867276E-1,9.807889E-2,-1.3653837E-1,1.16813816E-1,-1.122697E-1,-9.538492E-2,1.2762938E-1,-1.15493275E-1,-9.522576E-2],"split_indices":[12,16,14,1,6,0,0,17,0,14,15,6,16,6,0,14,1,16,14,16,6,11,17,0,15,0,3,3,17,1,1,0,0,14,0,16,14,0,14,17,11,0,0,0,0,0,0,0,0,0,0,0,0,0,0,0,0,0,0,0,0,0,0,0,0],"split_type":[0,0,0,0,0,0,0,0,0,0,0,0,0,0,0,0,0,0,0,0,0,0,0,0,0,0,0,0,0,0,0,0,0,0,0,0,0,0,0,0,0,0,0,0,0,0,0,0,0,0,0,0,0,0,0,0,0,0,0,0,0,0,0,0,0],"sum_hessian":[2.9919057E4,1.2257487E4,1.7661568E4,7.460246E3,4.7972407E3,1.3436203E4,4.2253657E3,7.3695015E3,9.074462E1,9.4301556E2,3.8542253E3,2.8207574E2,3.94329E3,1.5566838E2,7.213833E3,2.1167813E2,7.3133746E2,3.0927854E3,7.614399E2,7.805029E1,2.0402545E2,2.4693028E2,3.6963596E3,1.3408823E2,2.158016E1,2.0536118E2,6.316943E0,1.8411053E2,5.472269E2,1.401806E2,2.9526047E3,3.8852786E2,3.7291202E2,1.0153388E1,6.7896904E1,1.0297695E2,1.0104849E2,1.3501494E2,1.11915344E2,8.632972E2,2.8330625E3,1.1978323E0,2.0382326E1,4.4630322E0,1.8539108E0,1.1405008E2,7.0060455E1,5.3299567E2,1.4231232E1,6.439266E1,7.578794E1,2.789769E3,1.6283585E2,5.406746E0,4.746642E0,3.2470782E0,9.972987E1,5.969806E1,4.1350433E1,9.733404E1,1.4581301E1,8.3729297E2,2.6004238E1,2.3727244E3,4.603381E2],"tree_param":{"num_deleted":"0","num_feature":"18","num_nodes":"65","size_leaf_vector":"1"}},{"base_weights":[-8.8606967E-4,-8.897209E-1,6.144861E-1,-1.0661832E0,-6.1844736E-1,6.7969084E-1,-1.09804E-1,-1.0924641E0,1.08696185E-1,3.5022604E-1,-8.5835475E-1,9.574053E-1,3.426638E-1,-8.230509E-1,-1.0983658E-1,8.308926E-1,-1.0970545E-1,-1.0311868E0,-8.563179E-2,6.7731524E-1,1.0785404E0,-1.7545837E-1,8.871646E-1,-1.10186234E-1,8.365201E-1,8.746728E-1,-1.3796332E-1,-1.0662949E0,-3.89669E-1,1.1084654E0,-1.0980568E-1,8.059924E-1,-1.1396053E0,-1.1534603E-1,1.0829979E0,8.1902516E-1,-8.2557446E-1,6.344075E-1,1.0726929E0,-7.26654E-2,9.97689E-2,9.454675E-2,-1.3210704E-2,-5.7376124E-2,-1.1011889E-1,1.0571013E-1,-1.09569095E-1,1.1106445E-1,3.3622872E-2,1.0747868E-1,3.181426E-2,-1.1527586E-1,-2.1035336E-2,1.08933285E-1,-2.802357E-2,8.876338E-2,-9.0992115E-2,-1.0894406E-1,-1.3760275E-2,8.512214E-2,-7.3017837E-3,1.09381795E-1,8.4874295E-2],"categories":[],"categories_nodes":[],"categories_segments":[],"categories_sizes":[],"default_left":[0,0,0,0,0,0,0,0,0,0,0,0,0,0,0,0,0,0,0,0,0,0,0,0,0,0,0,0,0,0,0,0,0,0,0,0,0,0,0,0,0,0,0,0,0,0,0,0,0,0,0,0,0,0,0,0,0,0,0,0,0,0,0],"id":17,"left_children":[1,3,5,7,9,11,-1,13,-1,15,17,19,21,23,-1,25,-1,27,29,31,33,35,37,-1,39,41,-1,43,45,47,-1,49,51,-1,53,55,57,59,61,-1,-1,-1,-1,-1,-1,-1,-1,-1,-1,-1,-1,-1,-1,-1,-1,-1,-1,-1,-1,-1,-1,-1,-1],"loss_changes":[1.5023494E4,5.372412E2,1.8130972E3,3.8635645E2,1.0300388E3,1.4631191E3,0E0,9.7890625E0,0E0,6.1329156E2,4.7425342E2,2.9009033E2,1.9933345E3,6.947295E1,0E0,6.521393E1,0E0,6.495508E1,7.87379E2,6.065773E2,6.076416E1,2.3417954E3,1.6086816E2,0E0,6.2368765E0,4.6393127E1,0E0,4.6653076E1,1.5659888E2,1.2948608E-1,0E0,3.16969E2,1.85672E0,0E0,5.18667E1,1.706626E2,3.9743103E2,2.2410876E2,8.463867E0,0E0,0E0,0E0,0E0,0E0,0E0,0E0,0E0,0E0,0E0,0E0,0E0,0E0,0E0,0E0,0E0,0E0,0E0,0E0,0E0,0E0,0E0,0E0,0E0],"parents":[2147483647,0,0,1,1,2,2,3,3,4,4,5,5,7,7,9,9,10,10,11,11,12,12,13,13,15,15,17,17,18,18,19,19,20,20,21,21,22,22,24,24,25,25,27,27,28,28,29,29,31,31,32,32,34,34,35,35,36,36,37,37,38,38],"right_children":[2,4,6,8,10,12,-1,14,-1,16,18,20,22,24,-1,26,-1,28,30,32,34,36,38,-1,40,42,-1,44,46,48,-1,50,52,-1,54,56,58,60,62,-1,-1,-1,-1,-1,-1,-1,-1,-1,-1,-1,-1,-1,-1,-1,-1,-1,-1,-1,-1,-1,-1,-1,-1],"split_conditions":[1E0,2.829667E4,1E0,1.5913628E6,4.4254125E4,1.3633912E5,-1.09804E-1,2.1827873E-11,1.08696185E-1,4.4745E2,3.3E1,1E0,1.3250683E5,2.2249498E6,-1.0983658E-1,1.5E1,-1.0970545E-1,1.1127902E6,4.4745E2,1.1101777E5,2.1827873E-11,5.986566E4,4.9053097E5,-1.10186234E-1,3.3E1,1.6186281E5,-1.3796332E-1,5.161452E4,1.2807352E6,1.0453302E6,-1.0980568E-1,9E0,1.2495599E5,-1.1534603E-1,3.1075E4,1.5E1,5.9807133E4,3.627978E5,1E0,-7.26654E-2,9.97689E-2,9.454675E-2,-1.3210704E-2,-5.7376124E-2,-1.1011889E-1,1.0571013E-1,-1.09569095E-1,1.1106445E-1,3.3622872E-2,1.0747868E-1,3.181426E-2,-1.1527586E-1,-2.1035336E-2,1.08933285E-1,-2.802357E-2,8.876338E-2,-9.0992115E-2,-1.0894406E-1,-1.3760275E-2,8.512214E-2,-7.3017837E-3,1.09381795E-1,8.4874295E-2],"split_indices":[12,16,10,1,5,6,0,17,0,4,15,11,15,5,0,0,0,1,4,17,17,1,15,0,15,17,0,16,5,17,0,0,16,0,5,0,15,1,11,0,0,0,0,0,0,0,0,0,0,0,0,0,0,0,0,0,0,0,0,0,0,0,0],"split_type":[0,0,0,0,0,0,0,0,0,0,0,0,0,0,0,0,0,0,0,0,0,0,0,0,0,0,0,0,0,0,0,0,0,0,0,0,0,0,0,0,0,0,0,0,0,0,0,0,0,0,0,0,0,0,0,0,0,0,0,0,0,0,0],"sum_hessian":[2.7465053E4,1.123579E4,1.6229263E4,6.8057476E3,4.430042E3,1.5634575E4,5.9468665E2,6.7241665E3,8.158103E1,8.792871E2,3.5507551E3,8.57052E3,7.0640557E3,1.4715244E2,6.577014E3,6.6038715E2,2.1889996E2,2.9014617E3,6.492935E2,2.5895415E3,5.9809785E3,3.6200547E3,3.4440012E3,1.2627417E2,2.0878271E1,6.4815454E2,1.2232594E1,2.7502854E3,1.5117621E2,2.978737E2,3.514198E2,2.4187952E3,1.707465E2,1.1406902E1,5.9695713E3,1.4309177E3,2.189137E3,1.4597327E3,1.9842684E3,1.6234837E0,1.9254787E1,6.056289E2,4.2525665E1,1.8310933E2,2.567176E3,4.941612E1,1.01760086E2,2.9659857E2,1.2751282E0,1.5587534E3,8.600416E2,1.6812619E2,2.6203148E0,5.9421597E3,2.741177E1,1.3767709E3,5.4146873E1,1.581848E3,6.072889E2,1.1171438E3,3.425889E2,1.8096783E3,1.7459013E2],"tree_param":{"num_deleted":"0","num_feature":"18","num_nodes":"63","size_leaf_vector":"1"}},{"base_weights":[-1.4146018E-3,-8.8033205E-1,5.9877443E-1,-1.0562946E0,-6.112856E-1,1.0930347E-1,-9.065965E-1,-1.0820428E0,1.07554376E-1,3.3362702E-1,-8.497364E-1,-6.7419566E-2,-9.572519E-1,-8.048651E-1,-1.0881664E-1,7.930859E-1,-1.086274E-1,-1.0212134E0,-8.227937E-2,6.749531E-1,-1.116369E-1,-9.7862834E-1,1.06937364E-1,-1.0865702E-1,8.033635E-1,5.858864E-1,1.1166866E0,-1.0543288E0,-3.9983782E-1,-1.0894805E-1,1.1160659E-1,8.4899807E-1,-1.1061223E-1,-6.884624E-1,-1.0725522E0,1.01804785E-1,-7.856321E-2,-1.7977248E-1,7.278743E-2,-5.199858E-2,1.12615906E-1,-5.5403806E-2,-1.0903611E-1,1.0091956E-1,-1.0808072E-1,-1.1228295E-1,9.9313736E-2,-1.2588357E-2,-1.1320102E-1,-6.409771E-2,-1.1015371E-1],"categories":[],"categories_nodes":[],"categories_segments":[],"categories_sizes":[],"default_left":[0,0,0,0,0,0,0,0,0,0,0,0,0,0,0,0,0,0,0,0,0,0,0,0,0,0,0,0,0,0,0,0,0,0,0,0,0,0,0,0,0,0,0,0,0,0,0,0,0,0,0],"id":18,"left_children":[1,3,5,7,9,-1,11,13,-1,15,17,19,21,23,-1,25,-1,27,29,31,-1,33,-1,-1,35,37,39,41,43,-1,-1,45,-1,47,49,-1,-1,-1,-1,-1,-1,-1,-1,-1,-1,-1,-1,-1,-1,-1,-1],"loss_changes":[1.3394682E4,4.8714307E2,1.1227482E4,3.430254E2,9.1878455E2,0E0,1.584956E2,9.569824E0,0E0,5.372186E2,4.2832666E2,1.6694293E2,1.5343774E2,6.2877373E1,0E0,4.1032654E1,0E0,5.4329346E1,7.2010706E2,3.9871567E1,0E0,9.414307E1,0E0,0E0,7.955015E0,1.303027E2,4.3310547E0,4.4922607E1,1.3181232E2,0E0,0E0,3.379425E1,0E0,2.1298898E2,3.217163E1,0E0,0E0,0E0,0E0,0E0,0E0,0E0,0E0,0E0,0E0,0E0,0E0,0E0,0E0,0E0,0E0],"parents":[2147483647,0,0,1,1,2,2,3,3,4,4,6,6,7,7,9,9,10,10,11,11,12,12,13,13,15,15,17,17,18,18,19,19,21,21,24,24,25,25,26,26,27,27,28,28,31,31,33,33,34,34],"right_children":[2,4,6,8,10,-1,12,14,-1,16,18,20,22,24,-1,26,-1,28,30,32,-1,34,-1,-1,36,38,40,42,44,-1,-1,46,-1,48,50,-1,-1,-1,-1,-1,-1,-1,-1,-1,-1,-1,-1,-1,-1,-1,-1],"split_conditions":[1E0,2.829667E4,9.999999E-1,1.5913628E6,4.4254125E4,1.0930347E-1,-5.459288E4,2.1827873E-11,1.07554376E-1,4.4745E2,3.3E1,1.695773E0,2.4564462E6,2.353732E6,-1.0881664E-1,3.3E1,-1.086274E-1,1.1382074E6,9.9979925E-1,5.3749744E5,-1.116369E-1,1.4551915E-11,1.06937364E-1,-1.0865702E-1,8.878418E0,9.480485E4,2.256495E2,5.161452E4,1.2807352E6,-1.0894805E-1,1.1160659E-1,2.5931533E4,-1.1061223E-1,1.3633912E5,1.1643447E0,1.01804785E-1,-7.856321E-2,-1.7977248E-1,7.278743E-2,-5.199858E-2,1.12615906E-1,-5.5403806E-2,-1.0903611E-1,1.0091956E-1,-1.0808072E-1,-1.1228295E-1,9.9313736E-2,-1.2588357E-2,-1.1320102E-1,-6.409771E-2,-1.1015371E-1],"split_indices":[12,16,14,1,5,0,16,17,0,4,15,14,3,6,0,15,0,1,14,5,0,17,0,0,2,14,14,16,5,0,0,6,0,6,14,0,0,0,0,0,0,0,0,0,0,0,0,0,0,0,0],"split_type":[0,0,0,0,0,0,0,0,0,0,0,0,0,0,0,0,0,0,0,0,0,0,0,0,0,0,0,0,0,0,0,0,0,0,0,0,0,0,0,0,0,0,0,0,0,0,0,0,0,0,0],"sum_hessian":[2.5389963E4,1.0302502E4,1.5087461E4,6.226985E3,4.075517E3,1.1358414E4,3.729047E3,6.1531597E3,7.382524E1,8.211468E2,3.2543704E3,2.1241597E2,3.516631E3,1.3586128E2,6.0172983E3,6.2072943E2,2.0041736E2,2.6597563E3,5.946141E2,1.2459379E2,8.782218E1,3.4804373E3,3.6193832E1,1.1588643E2,1.9974854E1,3.8013916E2,2.4059024E2,2.5245183E3,1.3523805E2,3.231226E2,2.7149152E2,1.1397918E2,1.0614614E1,8.531296E2,2.6273076E3,1.7913877E1,2.0609756E0,2.071564E1,3.5942352E2,1.0743197E0,2.3951591E2,1.7070721E2,2.353811E3,4.390652E1,9.1331535E1,7.3017135E0,1.0667746E2,3.7666553E2,4.7646405E2,1.6680208E2,2.4605056E3],"tree_param":{"num_deleted":"0","num_feature":"18","num_nodes":"51","size_leaf_vector":"1"}},{"base_weights":[-1.800269E-3,4.7330046E-1,-7.91117E-1,-1.0459006E0,1.0792335E0,6.491336E-2,-8.394813E-1,-1.0784762E-1,1.054225E0,1.0804816E0,-9.249313E-2,-1.0170407E0,6.06261E-1,-1.0902019E-1,-7.375318E-1,3.0374676E-2,1.062557E-1,1.0822008E-1,-1.5618958E-1,-1.0427105E0,-3.8546985E-1,-1.10105984E-1,7.8946424E-1,-2.3846841E-1,-8.93988E-1,-9.670137E-2,9.372485E-2,-1.08665995E-1,-8.8688636E-1,-9.160688E-2,7.350859E-2,9.503604E-1,9.310126E-3,-5.14075E-1,6.8492883E-1,-3.5009536E-1,-9.6403605E-1,-1.053975E-1,8.213418E-2,4.338341E-2,1.128062E-1,-1.11964166E-1,1.0249275E-1,-7.809444E-2,6.8197153E-3,9.347194E-2,-1.2537089E-1,-7.723125E-2,1.9247314E-2,-1.01507045E-1,-3.290006E-2],"categories":[],"categories_nodes":[],"categories_segments":[],"categories_sizes":[],"default_left":[0,0,0,0,0,0,0,0,0,0,0,0,0,0,0,0,0,0,0,0,0,0,0,0,0,0,0,0,0,0,0,0,0,0,0,0,0,0,0,0,0,0,0,0,0,0,0,0,0,0,0],"id":19,"left_children":[1,3,5,7,9,11,13,-1,15,17,-1,19,21,-1,23,-1,-1,-1,25,27,29,-1,31,33,35,-1,-1,-1,37,-1,-1,39,41,43,45,47,49,-1,-1,-1,-1,-1,-1,-1,-1,-1,-1,-1,-1,-1,-1],"loss_changes":[8.711832E3,1.3350885E4,3.6144824E2,2.8405664E2,2.6933594E1,2.7457336E2,2.1038818E2,0E0,7.538605E-2,2.2197266E1,0E0,2.1329498E0,9.8576485E1,0E0,4.586687E2,0E0,0E0,0E0,1.443375E1,6.1187744E-2,5.2475367E0,0E0,3.547522E1,3.5767422E2,1.7011206E2,0E0,0E0,0E0,1.1815866E1,0E0,0E0,2.1020569E1,5.7722813E1,1.681672E2,1.5766667E2,1.17444016E2,1.2809766E2,0E0,0E0,0E0,0E0,0E0,0E0,0E0,0E0,0E0,0E0,0E0,0E0,0E0,0E0],"parents":[2147483647,0,0,1,1,2,2,3,3,4,4,5,5,6,6,8,8,9,9,11,11,12,12,14,14,18,18,19,19,20,20,22,22,23,23,24,24,28,28,31,31,32,32,33,33,34,34,35,35,36,36],"right_children":[2,4,6,8,10,12,14,-1,16,18,-1,20,22,-1,24,-1,-1,-1,26,28,30,-1,32,34,36,-1,-1,-1,38,-1,-1,40,42,44,46,48,50,-1,-1,-1,-1,-1,-1,-1,-1,-1,-1,-1,-1,-1,-1],"split_conditions":[9.999999E-1,9.8011744E-1,8E0,1.4875495E1,1E0,1.1368677E3,6.394258E4,-1.0784762E-1,2.7864056E5,4.4745E2,-9.249313E-2,8.2077954E2,2.8706383E4,-1.0902019E-1,2.8006794E5,3.0374676E-2,1.062557E-1,1.0822008E-1,1.7620384E6,1.4862262E5,3.8756305E2,-1.10105984E-1,1.902989E5,1.1562596E5,1.0681586E1,-9.670137E-2,9.372485E-2,-1.08665995E-1,3.3E1,-9.160688E-2,7.350859E-2,9.389357E0,1.4035051E1,3.2306404E4,8.87896E3,3.3E1,6.689368E5,-1.053975E-1,8.213418E-2,4.338341E-2,1.128062E-1,-1.11964166E-1,1.0249275E-1,-7.809444E-2,6.8197153E-3,9.347194E-2,-1.2537089E-1,-7.723125E-2,1.9247314E-2,-1.01507045E-1,-3.290006E-2],"split_indices":[14,14,0,2,10,15,6,0,4,4,0,15,6,0,6,0,0,0,1,14,14,0,17,14,2,0,0,0,15,0,0,14,2,15,17,15,14,0,0,0,0,0,0,0,0,0,0,0,0,0,0],"split_type":[0,0,0,0,0,0,0,0,0,0,0,0,0,0,0,0,0,0,0,0,0,0,0,0,0,0,0,0,0,0,0,0,0,0,0,0,0,0,0,0,0,0,0,0,0,0,0,0,0,0,0],"sum_hessian":[2.3229246E4,1.4501183E4,8.7280625E3,4.1344717E3,1.0366711E4,4.667319E2,8.261331E3,4.071799E3,6.267234E1,1.036072E4,5.9912944E0,1.553553E2,3.1137662E2,2.3853757E3,5.875955E3,1.0994395E0,6.1572903E1,1.0346462E4,1.4257878E1,1.4866203E2,6.693259E0,2.968877E1,2.8168784E2,1.4030472E3,4.472908E3,8.253345E0,6.0045342E0,1.1129756E2,3.736448E1,4.6662235E0,2.0270352E0,2.3334535E2,4.834249E1,1.08088E3,3.221672E2,5.1102426E2,3.9618838E3,3.4384224E1,2.9802573E0,6.0610306E1,1.7273505E2,2.2845358E1,2.5497133E1,7.409456E2,3.3993445E2,2.858533E2,3.631392E1,2.8714767E2,2.238766E2,3.6666191E3,2.9526468E2],"tree_param":{"num_deleted":"0","num_feature":"18","num_nodes":"51","size_leaf_vector":"1"}},{"base_weights":[-1.5262249E-3,-8.4954274E-1,5.7984334E-1,-1.0218279E0,-5.2455E-1,1.0748295E-1,-8.6038786E-1,-1.0507582E0,5.844271E-1,3.532945E-1,-7.821308E-1,1.5731792E-1,-9.376021E-1,-1.0684834E0,-5.243426E-1,9.788777E-1,-1.0233426E-1,-1.06875114E-1,6.9960463E-1,-1.0215354E0,-5.359009E-2,-1.1101021E-1,7.405464E-1,-1.562114E-1,-9.9759394E-1,-1.0702554E-1,-3.4225693E-1,3.9586863E-1,-1.07849E-1,-8.0459975E-2,1.0544007E-1,-9.411924E-1,8.024677E-1,-8.0999804E-1,-1.07198656E-1,-1.0743954E-1,1.1102142E-1,1.0769289E0,-6.4824454E-2,-1.116695E-1,8.841313E-1,-7.759964E-1,-1.0717305E0,9.4826475E-2,-9.699121E-2,7.734461E-2,-1.3207023E-1,-1.1418734E-1,8.449523E-2,8.7289214E-2,-1.16586566E-1,-1.0886675E-1,-2.8285656E-2,-1.3602428E-1,1.1729572E-1,9.748094E-2,-1.5403119E-1,-1.05364405E-1,1.21711984E-1,-1.1422314E-1,-2.8883079E-2,-1.1117524E-1,-8.712173E-2],"categories":[],"categories_nodes":[],"categories_segments":[],"categories_sizes":[],"default_left":[0,0,0,0,0,0,0,0,0,0,0,0,0,0,0,0,0,0,0,0,0,0,0,0,0,0,0,0,0,0,0,0,0,0,0,0,0,0,0,0,0,0,0,0,0,0,0,0,0,0,0,0,0,0,0,0,0,0,0,0,0,0,0],"id":20,"left_children":[1,3,5,7,9,-1,11,13,15,17,19,21,23,25,27,29,-1,-1,31,33,35,-1,37,39,41,-1,43,45,-1,-1,-1,47,49,51,-1,-1,-1,53,55,-1,57,59,61,-1,-1,-1,-1,-1,-1,-1,-1,-1,-1,-1,-1,-1,-1,-1,-1,-1,-1,-1,-1],"loss_changes":[1.0545698E4,4.865913E2,9.047803E3,2.6478418E2,6.822964E2,0E0,2.5525952E2,5.1547363E1,6.5193985E1,3.3806348E2,4.0673438E2,1.7068816E2,1.4130347E2,6.585449E0,9.419302E1,1.1864952E1,0E0,0E0,9.3821594E1,1.7865723E1,6.877577E2,0E0,4.2868004E1,2.1717122E2,4.5206055E1,0E0,1.2760875E1,4.6289917E1,0E0,0E0,0E0,1.2789793E1,7.3019684E1,4.994986E1,0E0,0E0,0E0,2.7688675E1,7.434425E1,0E0,6.865728E1,1.25655365E2,1.5861328E1,0E0,0E0,0E0,0E0,0E0,0E0,0E0,0E0,0E0,0E0,0E0,0E0,0E0,0E0,0E0,0E0,0E0,0E0,0E0,0E0],"parents":[2147483647,0,0,1,1,2,2,3,3,4,4,6,6,7,7,8,8,9,9,10,10,11,11,12,12,13,13,14,14,15,15,18,18,19,19,20,20,22,22,23,23,24,24,26,26,27,27,31,31,32,32,33,33,37,37,38,38,40,40,41,41,42,42],"right_children":[2,4,6,8,10,-1,12,14,16,18,20,22,24,26,28,30,-1,-1,32,34,36,-1,38,40,42,-1,44,46,-1,-1,-1,48,50,52,-1,-1,-1,54,56,-1,58,60,62,-1,-1,-1,-1,-1,-1,-1,-1,-1,-1,-1,-1,-1,-1,-1,-1,-1,-1,-1,-1],"split_conditions":[1E0,1E0,9.999999E-1,1.3964206E5,4.4254125E4,1.0748295E-1,8E0,9.0981206E5,1.2735043E2,1.3976385E2,3.3E1,1E0,-2.3445412E4,6.2482566E4,1.2807352E6,3.0528284E5,-1.0233426E-1,-1.06875114E-1,3.984446E4,4.625534E4,9.9988294E-1,-1.1101021E-1,3.84493E4,1E0,1.4551915E-11,-1.0702554E-1,4.4745E2,1.1E1,-1.07849E-1,-8.0459975E-2,1.0544007E-1,9.8E1,1.5741722E5,1.2226099E6,-1.07198656E-1,-1.0743954E-1,1.1102142E-1,8.423697E4,1.3986157E0,-1.116695E-1,1E0,3.2581709E4,1E0,9.4826475E-2,-9.699121E-2,7.734461E-2,-1.3207023E-1,-1.1418734E-1,8.449523E-2,8.7289214E-2,-1.16586566E-1,-1.0886675E-1,-2.8285656E-2,-1.3602428E-1,1.1729572E-1,9.748094E-2,-1.5403119E-1,-1.05364405E-1,1.21711984E-1,-1.1422314E-1,-2.8883079E-2,-1.1117524E-1,-8.712173E-2],"split_indices":[12,8,14,15,5,0,0,14,5,14,15,8,16,15,5,17,0,0,16,14,14,0,5,11,17,0,4,0,0,0,0,3,17,5,0,0,0,6,14,0,8,3,11,0,0,0,0,0,0,0,0,0,0,0,0,0,0,0,0,0,0,0,0],"split_type":[0,0,0,0,0,0,0,0,0,0,0,0,0,0,0,0,0,0,0,0,0,0,0,0,0,0,0,0,0,0,0,0,0,0,0,0,0,0,0,0,0,0,0,0,0,0,0,0,0,0,0,0,0,0,0,0,0,0,0,0,0,0,0],"sum_hessian":[2.138839E4,8.699043E3,1.2689348E4,5.6838013E3,3.0152417E3,9.44388E3,3.2454678E3,5.583581E3,1.0021996E2,6.839485E2,2.3312932E3,2.287986E2,3.0166692E3,5.400702E3,1.828793E2,8.079006E1,1.9429897E1,1.3353415E2,5.5041437E2,1.7543854E3,5.7690796E2,7.182076E1,1.5697783E2,2.1535002E2,2.8013193E3,5.3870835E3,1.3618647E1,6.884376E1,1.1403555E2,2.8899548E0,7.790011E1,3.1989588E1,5.1842474E2,3.4112668E2,1.4132587E3,3.0737637E2,2.695316E2,1.1049131E2,4.6486523E1,1.1193449E2,1.0341554E2,7.051281E2,2.0961912E3,4.289075E0,9.329572E0,5.6881504E1,1.196225E1,2.9082724E1,2.9068632E0,5.0105423E2,1.7370554E1,2.2245973E2,1.1866694E2,3.6894405E0,1.0680187E2,2.7470228E1,1.9016294E1,1.4847661E1,8.856788E1,4.0175635E2,3.0337177E2,1.7436245E3,3.5256665E2],"tree_param":{"num_deleted":"0","num_feature":"18","num_nodes":"63","size_leaf_vector":"1"}},{"base_weights":[-1.9484676E-3,-8.422607E-1,5.7317233E-1,-1.0152628E0,-5.176677E-1,1.06718875E-1,-8.4380126E-1,-1.043455E0,5.6409407E-1,3.468559E-1,-7.727259E-1,1.7953953E-1,-9.2112476E-1,-1.0619808E0,-5.06662E-1,9.672486E-1,-1.01397954E-1,-1.0610956E-1,6.8318677E-1,-1.0071818E0,-5.469784E-2,-1.0949563E-1,7.5458974E-1,-1.5513106E-1,-9.797168E-1,-1.06308416E-1,-3.6206397E-1,3.3935514E-1,-1.06794655E-1,-7.505927E-2,1.0331591E0,-9.542175E-1,7.8030133E-1,-7.2614837E-1,-1.0649164E-1,-1.0664492E-1,1.0977068E-1,1.0759808E0,-3.538039E-2,-1.10220015E-1,8.7118125E-1,-8.343641E-1,-1.0922698E-1,-9.065428E-2,7.8753166E-2,7.119934E-2,-1.21293955E-1,2.9144743E-2,1.0423497E-1,-1.0875415E-1,7.140403E-2,8.184603E-2,-1.3630706E-1,-9.333975E-2,3.0814413E-2,-1.3078015E-1,1.15681745E-1,9.611149E-2,-1.496372E-1,-1.0230219E-1,1.1997123E-1,-1.0530583E-1,-2.0624645E-2],"categories":[],"categories_nodes":[],"categories_segments":[],"categories_sizes":[],"default_left":[0,0,0,0,0,0,0,0,0,0,0,0,0,0,0,0,0,0,0,0,0,0,0,0,0,0,0,0,0,0,0,0,0,0,0,0,0,0,0,0,0,0,0,0,0,0,0,0,0,0,0,0,0,0,0,0,0,0,0,0,0,0,0],"id":21,"left_children":[1,3,5,7,9,-1,11,13,15,17,19,21,23,25,27,29,-1,-1,31,33,35,-1,37,39,41,-1,43,45,-1,-1,47,49,51,53,-1,-1,-1,55,57,-1,59,61,-1,-1,-1,-1,-1,-1,-1,-1,-1,-1,-1,-1,-1,-1,-1,-1,-1,-1,-1,-1,-1],"loss_changes":[9.437857E3,4.4506348E2,8.116641E3,2.310122E2,6.0904156E2,0E0,2.373689E2,5.0026367E1,5.913443E1,2.98888E2,3.5888867E2,1.5578365E2,1.2494409E2,3.4106445E0,8.182013E1,9.076866E0,0E0,0E0,8.1659775E1,2.530542E1,6.1433966E2,0E0,3.7178505E1,1.9462068E2,4.1444824E1,0E0,6.504121E0,4.0878166E1,0E0,0E0,1.8040466E-1,7.21336E0,4.04487E1,5.9678146E1,0E0,0E0,0E0,2.1556023E1,6.4436844E1,0E0,6.1079872E1,1.555719E2,0E0,0E0,0E0,0E0,0E0,0E0,0E0,0E0,0E0,0E0,0E0,0E0,0E0,0E0,0E0,0E0,0E0,0E0,0E0,0E0,0E0],"parents":[2147483647,0,0,1,1,2,2,3,3,4,4,6,6,7,7,8,8,9,9,10,10,11,11,12,12,13,13,14,14,15,15,18,18,19,19,20,20,22,22,23,23,24,24,26,26,27,27,30,30,31,31,32,32,33,33,37,37,38,38,40,40,41,41],"right_children":[2,4,6,8,10,-1,12,14,16,18,20,22,24,26,28,30,-1,-1,32,34,36,-1,38,40,42,-1,44,46,-1,-1,48,50,52,54,-1,-1,-1,56,58,-1,60,62,-1,-1,-1,-1,-1,-1,-1,-1,-1,-1,-1,-1,-1,-1,-1,-1,-1,-1,-1,-1,-1],"split_conditions":[1E0,1E0,9.999999E-1,1.3964206E5,4.4254125E4,1.06718875E-1,8E0,9.1386075E5,1.2735043E2,1.3976385E2,3.3E1,1E0,-2.3445412E4,8.0065E4,1.3160706E6,7.578094E-1,-1.01397954E-1,-1.0610956E-1,3.654095E4,4.0047926E4,9.9988294E-1,-1.0949563E-1,3.84493E4,1E0,1.3261748E5,-1.06308416E-1,1.408089E5,1.1E1,-1.06794655E-1,-7.505927E-2,3.830603E5,9.8E1,1.5E1,3.5811125E4,-1.0649164E-1,-1.0664492E-1,1.0977068E-1,8.452414E4,1.3986157E0,-1.10220015E-1,1E0,3.1768E4,-1.0922698E-1,-9.065428E-2,7.8753166E-2,7.119934E-2,-1.21293955E-1,2.9144743E-2,1.0423497E-1,-1.0875415E-1,7.140403E-2,8.184603E-2,-1.3630706E-1,-9.333975E-2,3.0814413E-2,-1.3078015E-1,1.15681745E-1,9.611149E-2,-1.496372E-1,-1.0230219E-1,1.1997123E-1,-1.0530583E-1,-2.0624645E-2],"split_indices":[12,8,14,15,5,0,0,1,5,14,15,8,16,15,5,14,0,0,16,1,14,0,5,11,16,0,1,0,0,0,1,3,0,1,0,0,0,16,14,0,8,3,0,0,0,0,0,0,0,0,0,0,0,0,0,0,0,0,0,0,0,0,0],"split_type":[0,0,0,0,0,0,0,0,0,0,0,0,0,0,0,0,0,0,0,0,0,0,0,0,0,0,0,0,0,0,0,0,0,0,0,0,0,0,0,0,0,0,0,0,0,0,0,0,0,0,0,0,0,0,0,0,0,0,0,0,0,0,0],"sum_hessian":[1.9526715E4,7.933934E3,1.159278E4,5.174104E3,2.75983E3,8.596075E3,2.9967053E3,5.0836973E3,9.040673E1,6.286503E2,2.1311797E3,2.1043076E2,2.7862744E3,4.913156E3,1.7054181E2,7.231843E1,1.8088306E1,1.20800255E2,5.0785007E2,1.6062817E3,5.248979E2,6.514481E1,1.4528593E2,1.9824146E2,2.588033E3,4.904905E3,8.250532E0,6.8176155E1,1.0236566E2,2.2883556E0,7.003007E1,2.7940048E1,4.7991003E2,2.760647E2,1.330217E3,2.7954578E2,2.4535208E2,1.03013794E2,4.2272137E1,1.0306257E2,9.517889E1,1.1331194E3,1.4549137E3,5.7422676E0,2.5082645E0,5.5414803E1,1.2761352E1,1.2574929E0,6.8772575E1,2.6194714E1,1.7453337E0,4.7212286E2,7.787169E0,2.300628E2,4.6001892E1,2.8809006E0,1.001329E2,2.5334465E1,1.6937674E1,1.3755455E1,8.142343E1,8.399827E2,2.9313663E2],"tree_param":{"num_deleted":"0","num_feature":"18","num_nodes":"63","size_leaf_vector":"1"}},{"base_weights":[5.173267E-4,-8.3447284E-1,5.7145774E-1,-1.0080999E0,-5.114823E-1,1.0603791E-1,-8.1990033E-1,-1.031267E0,8.190954E-1,-7.337034E-1,2.5808442E-2,1.7574497E-1,-8.9530456E-1,-1.0568899E-1,-6.2006587E-1,-1.0082876E-1,1.0393971E-1,-4.6858466E-1,-1.058165E0,-1.0601415E-1,1.0877009E-1,-1.08386636E-1,7.497909E-1,-1.3456036E-1,-9.534551E-1,-2.7429667E-1,-1.0854679E-1,-6.8213904E-1,3.448643E-1,-1.0873925E-1,1.018744E-1,5.0861645E-2,9.3309265E-1,-1.0935427E-1,8.853581E-1,-6.986615E-1,-1.0422702E0,3.3683922E-2,-1.0309835E-1,-5.98662E-2,-1.1738825E-1,8.665532E-2,-6.518088E-2,-1.4771938E-1,1.05311096E-1,1.2157104E-1,3.655616E-2,-9.762232E-2,1.1735793E-1,-1.117653E-1,-2.1247048E-2,-1.0920513E-1,-7.9884395E-2],"categories":[],"categories_nodes":[],"categories_segments":[],"categories_sizes":[],"default_left":[0,0,0,0,0,0,0,0,0,0,0,0,0,0,0,0,0,0,0,0,0,0,0,0,0,0,0,0,0,0,0,0,0,0,0,0,0,0,0,0,0,0,0,0,0,0,0,0,0,0,0,0,0],"id":22,"left_children":[1,3,5,7,9,-1,11,13,15,17,19,21,23,-1,25,-1,-1,27,29,-1,-1,-1,31,33,35,37,-1,39,41,-1,-1,43,45,-1,47,49,51,-1,-1,-1,-1,-1,-1,-1,-1,-1,-1,-1,-1,-1,-1,-1,-1],"loss_changes":[8.515488E3,4.0627588E2,7.2174707E3,2.0050586E2,3.0306012E2,0E0,2.072959E2,4.8422363E1,2.504625E1,1.539563E2,8.58611E2,1.4186963E2,1.1334009E2,0E0,4.406019E1,0E0,0E0,1.7219923E2,5.007086E1,0E0,0E0,0E0,1.7196648E1,1.8025647E2,5.3190674E1,7.410128E1,0E0,3.1496704E1,1.0793874E2,0E0,0E0,4.600466E1,1.6649681E1,0E0,4.9103966E1,1.2583856E2,2.0513062E1,0E0,0E0,0E0,0E0,0E0,0E0,0E0,0E0,0E0,0E0,0E0,0E0,0E0,0E0,0E0,0E0],"parents":[2147483647,0,0,1,1,2,2,3,3,4,4,6,6,7,7,8,8,9,9,10,10,11,11,12,12,14,14,17,17,18,18,22,22,23,23,24,24,25,25,27,27,28,28,31,31,32,32,34,34,35,35,36,36],"right_children":[2,4,6,8,10,-1,12,14,16,18,20,22,24,-1,26,-1,-1,28,30,-1,-1,-1,32,34,36,38,-1,40,42,-1,-1,44,46,-1,48,50,52,-1,-1,-1,-1,-1,-1,-1,-1,-1,-1,-1,-1,-1,-1,-1,-1],"split_conditions":[1E0,1E0,9.999999E-1,2.6617572E6,9.8E1,1.0603791E-1,8E0,9.5029106E5,1E0,4.3092E4,1.3986157E0,1E0,-2.3445412E4,-1.0568899E-1,1.1E1,-1.0082876E-1,1.0393971E-1,1.1081E2,1E0,-1.0601415E-1,1.0877009E-1,-1.08386636E-1,8.024701E4,1E0,1.4551915E-11,7.904319E5,-1.0854679E-1,2.7847844E5,1.336815E4,-1.0873925E-1,1.018744E-1,1E0,1.3261748E5,-1.0935427E-1,1E0,3.1768E4,1E0,3.3683922E-2,-1.0309835E-1,-5.98662E-2,-1.1738825E-1,8.665532E-2,-6.518088E-2,-1.4771938E-1,1.05311096E-1,1.2157104E-1,3.655616E-2,-9.762232E-2,1.1735793E-1,-1.117653E-1,-2.1247048E-2,-1.0920513E-1,-7.9884395E-2],"split_indices":[12,8,14,1,3,0,0,16,13,17,14,8,16,0,0,0,0,17,11,0,0,0,16,11,17,17,0,16,17,0,0,11,16,0,8,3,11,0,0,0,0,0,0,0,0,0,0,0,0,0,0,0,0],"split_type":[0,0,0,0,0,0,0,0,0,0,0,0,0,0,0,0,0,0,0,0,0,0,0,0,0,0,0,0,0,0,0,0,0,0,0,0,0,0,0,0,0,0,0,0,0,0,0,0,0,0,0,0,0],"sum_hessian":[1.78603E4,7.2527793E3,1.0607521E4,4.7156885E3,2.5370908E3,7.8494673E3,2.758054E3,4.6570767E3,5.8611755E1,1.7945199E3,7.425711E2,1.9407935E2,2.5639746E3,4.3824277E3,2.7464917E2,5.920972E0,5.2690784E1,9.889168E2,8.056031E2,3.671277E2,3.7544342E2,6.048057E1,1.3359877E2,1.8230566E2,2.381669E3,1.5848935E2,1.16159836E2,7.8341E2,2.0550684E2,7.948933E2,1.0709764E1,2.8023327E1,1.0557545E2,9.392249E1,8.838317E1,6.178997E2,1.7637692E3,8.79841E1,7.050525E1,6.716157E2,1.1179422E2,1.3498312E2,7.0523705E1,1.0912289E1,1.7111038E1,6.9716225E1,3.5859222E1,1.1529389E1,7.685378E1,3.311883E2,2.8671146E2,1.46142E3,3.0234918E2],"tree_param":{"num_deleted":"0","num_feature":"18","num_nodes":"53","size_leaf_vector":"1"}},{"base_weights":[1.2875817E-4,-8.1981915E-1,5.6271535E-1,-9.9825466E-1,-4.946288E-1,1.054289E-1,-8.0196655E-1,-1.02741E0,5.606593E-1,-7.2038347E-1,5.028126E-2,1.4641285E-1,-8.752572E-1,-1.0498923E0,-4.2805022E-1,-9.697365E-2,9.188404E-1,-9.574173E-2,-9.565996E-1,-1.0535208E-1,1.0812215E-1,-1.0734737E-1,6.738053E-1,-6.556274E-1,-1.07324116E-1,-1.0509621E-1,-3.05094E-1,1.8065079E-1,-1.05586246E-1,-7.940786E-2,1.0130847E0,-1.1261259E0,6.841238E-1,-9.911263E-1,1.0683685E-1,-1.02859765E-1,8.9015007E-1,-8.457235E-1,8.1411517E-1,-8.5071765E-2,7.307392E-2,6.366212E-2,-1.0933771E-1,1.0360005E-1,2.1570235E-2,-1.0623746E-1,-1.280569E-1,7.8915186E-2,-1.5286094E-1,-5.0830435E-2,-1.0781602E-1,-1.4842607E-1,1.0358707E-1,1.2076254E-1,2.8657088E-2,-1.07714236E-1,-1.5770303E-3,-1.10775724E-1,1.4484373E-1],"categories":[],"categories_nodes":[],"categories_segments":[],"categories_sizes":[],"default_left":[0,0,0,0,0,0,0,0,0,0,0,0,0,0,0,0,0,0,0,0,0,0,0,0,0,0,0,0,0,0,0,0,0,0,0,0,0,0,0,0,0,0,0,0,0,0,0,0,0,0,0,0,0,0,0,0,0,0,0],"id":23,"left_children":[1,3,5,7,9,-1,11,13,15,17,19,21,23,25,27,-1,29,31,33,-1,-1,-1,35,37,-1,-1,39,41,-1,-1,43,45,47,49,-1,51,53,55,57,-1,-1,-1,-1,-1,-1,-1,-1,-1,-1,-1,-1,-1,-1,-1,-1,-1,-1,-1,-1],"loss_changes":[7.548926E3,3.8591064E2,6.5117266E3,1.959624E2,2.9052026E2,0E0,1.7881677E2,5.6418945E1,4.450795E1,2.4627264E2,7.893515E2,1.1992175E2,1.0306958E2,2.9199219E0,5.9144955E1,0E0,1.1296364E1,3.6982126E2,8.5756226E1,0E0,0E0,0E0,2.1929539E1,3.175134E2,0E0,0E0,4.7147818E0,4.669381E1,0E0,0E0,9.1020966E-1,5.913696E-1,6.2103104E1,4.9526733E1,0E0,4.7489197E1,1.915232E1,1.9293292E2,1.6054956E2,0E0,0E0,0E0,0E0,0E0,0E0,0E0,0E0,0E0,0E0,0E0,0E0,0E0,0E0,0E0,0E0,0E0,0E0,0E0,0E0],"parents":[2147483647,0,0,1,1,2,2,3,3,4,4,6,6,7,7,8,8,9,9,10,10,11,11,12,12,13,13,14,14,16,16,17,17,18,18,22,22,23,23,26,26,27,27,30,30,31,31,32,32,33,33,35,35,36,36,37,37,38,38],"right_children":[2,4,6,8,10,-1,12,14,16,18,20,22,24,26,28,-1,30,32,34,-1,-1,-1,36,38,-1,-1,40,42,-1,-1,44,46,48,50,-1,52,54,56,58,-1,-1,-1,-1,-1,-1,-1,-1,-1,-1,-1,-1,-1,-1,-1,-1,-1,-1,-1,-1],"split_conditions":[1E0,1E0,9.999999E-1,1.3250683E5,3.3E1,1.054289E-1,8E0,9.1386075E5,3.892848E5,2.8006794E5,9.9988294E-1,1E0,1.3233002E5,8.0065E4,3.2602155E6,-9.697365E-2,7.578094E-1,9.404704E4,1E0,-1.0535208E-1,1.0812215E-1,-1.0734737E-1,8.452414E4,1E0,-1.07324116E-1,-1.0509621E-1,1.3514078E5,1.1E1,-1.05586246E-1,-7.940786E-2,1.1732559E6,3.654095E4,8.87896E3,4.0047926E4,1.0683685E-1,1E0,1.3328508E5,3.6832535E4,1E0,-8.5071765E-2,7.307392E-2,6.366212E-2,-1.0933771E-1,1.0360005E-1,2.1570235E-2,-1.0623746E-1,-1.280569E-1,7.8915186E-2,-1.5286094E-1,-5.0830435E-2,-1.0781602E-1,-1.4842607E-1,1.0358707E-1,1.2076254E-1,2.8657088E-2,-1.07714236E-1,-1.5770303E-3,-1.10775724E-1,1.4484373E-1],"split_indices":[12,8,14,15,15,0,0,1,17,6,14,8,1,15,6,0,14,16,11,0,0,0,16,11,0,0,1,0,0,0,6,16,17,1,0,11,6,3,8,0,0,0,0,0,0,0,0,0,0,0,0,0,0,0,0,0,0,0,0],"split_type":[0,0,0,0,0,0,0,0,0,0,0,0,0,0,0,0,0,0,0,0,0,0,0,0,0,0,0,0,0,0,0,0,0,0,0,0,0,0,0,0,0,0,0,0,0,0,0,0,0,0,0,0,0,0,0,0,0,0,0],"sum_hessian":[1.6362755E4,6.658213E3,9.704542E3,4.297861E3,2.3603523E3,7.1347524E3,2.5697898E3,4.219291E3,7.856984E1,1.6686948E3,6.9165753E2,1.8427516E2,2.3855146E3,4.066021E3,1.5326985E2,1.4577472E1,6.3992367E1,4.5826917E2,1.2104257E3,3.3401456E2,3.57643E2,5.5308426E1,1.2896674E2,1.1329783E3,1.2525365E3,4.0597788E3,6.242232E0,7.8181E1,7.5088844E1,2.9499705E0,6.1042397E1,1.972336E2,2.6103555E2,1.1906353E3,1.9790375E1,2.8211971E1,1.0075477E2,1.0035978E3,1.293805E2,4.2056327E0,2.0365992E0,5.7943512E1,2.0237484E1,5.9046227E1,1.9961677E0,1.4518336E2,5.2050236E1,2.4982109E2,1.1214475E1,1.8289006E2,1.00774524E3,1.2610573E1,1.5601398E1,6.537012E1,3.538465E1,7.8454297E2,2.1905476E2,3.1920681E1,9.745981E1],"tree_param":{"num_deleted":"0","num_feature":"18","num_nodes":"59","size_leaf_vector":"1"}},{"base_weights":[-5.806076E-4,-8.1335413E-1,5.583989E-1,-9.942123E-1,-4.853376E-1,1.048842E-1,-7.9057026E-1,-1.0228252E0,5.4624623E-1,3.3062795E-1,-7.459931E-1,-5.566184E-1,-1.0257655E0,-1.0420665E0,-3.7328985E-1,9.5364916E-1,-9.8600306E-2,-1.0390607E-1,6.1789757E-1,-9.6886265E-1,-5.179382E-2,-7.5805295E-1,7.3870265E-1,-1.0687311E-1,1.0190827E-1,-1.043891E0,-3.076132E-1,5.5476564E-1,-1.04473665E-1,-7.009156E-2,1.0237318E-1,-8.493191E-1,7.132383E-1,-6.079734E-1,-1.04566865E-1,-1.0463029E-1,1.07026815E-1,-7.2406107E-3,-1.0938374E0,-1.1049083E0,1.3355242E0,-1.0458442E-1,-7.6560274E-2,-9.11633E-2,8.8347286E-2,9.155255E-2,-1.5911786E-1,-1.1329343E-1,8.5212134E-2,7.958466E-2,-1.09586276E-1,-1.0528586E-1,1.2022277E-2,-7.9929285E-2,9.006353E-2,-1.1305853E-1,-1.043651E-1,-2.006912E-2,-1.1260606E-1,1.1034073E-1,1.6407087E-1],"categories":[],"categories_nodes":[],"categories_segments":[],"categories_sizes":[],"default_left":[0,0,0,0,0,0,0,0,0,0,0,0,0,0,0,0,0,0,0,0,0,0,0,0,0,0,0,0,0,0,0,0,0,0,0,0,0,0,0,0,0,0,0,0,0,0,0,0,0,0,0,0,0,0,0,0,0,0,0,0,0],"id":24,"left_children":[1,3,5,7,9,-1,11,13,15,17,19,21,23,25,27,29,-1,-1,31,33,35,37,39,-1,-1,41,43,45,-1,-1,-1,47,49,51,-1,-1,-1,53,55,57,59,-1,-1,-1,-1,-1,-1,-1,-1,-1,-1,-1,-1,-1,-1,-1,-1,-1,-1,-1,-1],"loss_changes":[6.7868896E3,3.606438E2,5.8566743E3,1.7346753E2,4.608036E2,0E0,1.293169E2,4.774878E1,4.600302E1,2.071961E2,2.5391254E2,3.0990707E2,1.0440662E2,4.691162E0,7.060428E1,7.3889694E0,0E0,0E0,6.1395798E1,3.3804443E1,4.4745178E2,2.5879065E2,1.775953E2,0E0,0E0,1.2270508E0,8.493707E0,3.8482273E1,0E0,0E0,0E0,1.3980913E1,6.1935745E1,7.153502E1,0E0,0E0,0E0,2.2955275E2,1.2823486E-1,5.33165E-1,6.787445E0,0E0,0E0,0E0,0E0,0E0,0E0,0E0,0E0,0E0,0E0,0E0,0E0,0E0,0E0,0E0,0E0,0E0,0E0,0E0,0E0],"parents":[2147483647,0,0,1,1,2,2,3,3,4,4,6,6,7,7,8,8,9,9,10,10,11,11,12,12,13,13,14,14,15,15,18,18,19,19,20,20,21,21,22,22,25,25,26,26,27,27,31,31,32,32,33,33,37,37,38,38,39,39,40,40],"right_children":[2,4,6,8,10,-1,12,14,16,18,20,22,24,26,28,30,-1,-1,32,34,36,38,40,-1,-1,42,44,46,-1,-1,-1,48,50,52,-1,-1,-1,54,56,58,60,-1,-1,-1,-1,-1,-1,-1,-1,-1,-1,-1,-1,-1,-1,-1,-1,-1,-1,-1,-1],"split_conditions":[1E0,1E0,9.999999E-1,1.3250683E5,4.4254125E4,1.048842E-1,1.1797595E1,1.3873366E1,1.2735043E2,1.3976385E2,3.3E1,1E0,2.4564462E6,6.064001E4,1.3160706E6,3.0528284E5,-9.8600306E-2,-1.0390607E-1,